{"learner":{"attributes":{"scikit_learn":"{\"_estimator_type\": \"classifier\"}"},"feature_names":["Air temperature","Rotational speed","Tool wear","Torque","Process temperature","Power","PowerWear","TempPerPower"],"feature_types":["float","float","float","float","float","float","float","float"],"gradient_booster":{"model":{"gbtree_model_param":{"num_parallel_tree":"1","num_trees":"100"},"iteration_indptr":[0,1,2,3,4,5,6,7,8,9,10,11,12,13,14,15,16,17,18,19,20,21,22,23,24,25,26,27,28,29,30,31,32,33,34,35,36,37,38,39,40,41,42,43,44,45,46,47,48,49,50,51,52,53,54,55,56,57,58,59,60,61,62,63,64,65,66,67,68,69,70,71,72,73,74,75,76,77,78,79,80,81,82,83,84,85,86,87,88,89,90,91,92,93,94,95,96,97,98,99,100],"tree_info":[0,0,0,0,0,0,0,0,0,0,0,0,0,0,0,0,0,0,0,0,0,0,0,0,0,0,0,0,0,0,0,0,0,0,0,0,0,0,0,0,0,0,0,0,0,0,0,0,0,0,0,0,0,0,0,0,0,0,0,0,0,0,0,0,0,0,0,0,0,0,0,0,0,0,0,0,0,0,0,0,0,0,0,0,0,0,0,0,0,0,0,0,0,0,0,0,0,0,0,0],"trees":[{"base_weights":[2.6002667E-8,-2.7314645E-1,1.7364911E0,-4.1379765E-1,1.035183E0,1.0556787E0,-4.988518E-2],"categories":[],"categories_nodes":[],"categories_segments":[],"categories_sizes":[],"default_left":[0,0,0,0,0,0,0],"id":0,"left_children":[1,3,-1,5,-1,-1,-1],"loss_changes":[1.2822648E3,4.0202673E2,0E0,2.5126462E2,0E0,0E0,0E0],"parents":[2147483647,0,0,1,1,3,3],"right_children":[2,4,-1,6,-1,-1,-1],"split_conditions":[1.6762349E7,6.19E1,1.7364911E0,1.43E1,1.035183E0,1.0556787E0,-4.988518E-2],"split_indices":[6,3,0,3,0,0,0],"split_type":[0,0,0,0,0,0,0],"sum_hessian":[2.683395E2,2.6515298E2,3.1865318E0,2.626373E2,2.515683E0,1.073358E0,2.6156393E2],"tree_param":{"num_deleted":"0","num_feature":"8","num_nodes":"7","size_leaf_vector":"1"}},{"base_weights":[-2.2911346E-2,4.054724E0,-3.1836802E-1,8.9969456E-1,2.274305E0,-6.0063046E-1,2.4662437E0,-8.865968E-2,4.1320476E-1,-8.346844E-2,2.9351538E-1,1.4378524E0,-9.305809E-2],"categories":[],"categories_nodes":[],"categories_segments":[],"categories_sizes":[],"default_left":[0,0,0,0,0,0,0,0,0,0,0,0,0],"id":1,"left_children":[1,3,5,-1,7,9,11,-1,-1,-1,-1,-1,-1],"loss_changes":[3.3025433E2,1.4250739E2,2.023266E2,0E0,9.147611E1,1.9512117E2,9.7293713E2,0E0,0E0,0E0,0E0,0E0,0E0],"parents":[2147483647,0,0,1,1,2,2,4,4,5,5,6,6],"right_children":[2,4,6,-1,8,10,12,-1,-1,-1,-1,-1,-1],"split_conditions":[3.6241256E-3,1.481E3,3.016E2,8.9969456E-1,1.6762349E7,2.05E2,5.5134098E4,-8.865968E-2,4.1320476E-1,-8.346844E-2,2.9351538E-1,1.4378524E0,-9.305809E-2],"split_indices":[7,1,0,0,6,2,5,0,0,0,0,0,0],"split_type":[0,0,0,0,0,0,0,0,0,0,0,0,0],"sum_hessian":[2.7205203E2,1.7520855E1,2.5453117E2,3.5667448E0,1.3954111E1,2.318173E2,2.271388E1,5.3588758E0,8.595236E0,2.181412E2,1.3676091E1,4.3224845E0,1.8391396E1],"tree_param":{"num_deleted":"0","num_feature":"8","num_nodes":"13","size_leaf_vector":"1"}},{"base_weights":[-4.510693E-2,2.8066583E0,-3.1473124E-1,4.623134E-1,1.7952453E0,-5.146834E-1,2.232641E0,-8.715094E-2,2.9668322E-1,-6.0748477E-2,5.591981E-1,2.7355823E-1,-5.0546795E-2],"categories":[],"categories_nodes":[],"categories_segments":[],"categories_sizes":[],"default_left":[0,0,0,0,0,0,0,0,0,0,0,0,0],"id":2,"left_children":[1,3,5,-1,7,9,11,-1,-1,-1,-1,-1,-1],"loss_changes":[2.1215019E2,3.5489746E1,1.2946954E2,0E0,5.5527287E1,1.3623628E2,2.6890732E1,0E0,0E0,0E0,0E0,0E0,0E0],"parents":[2147483647,0,0,1,1,2,2,4,4,5,5,6,6],"right_children":[2,4,6,-1,8,10,12,-1,-1,-1,-1,-1,-1],"split_conditions":[3.6241256E-3,1.481E3,2.06E2,4.623134E-1,1.6762349E7,2.207E3,1.542E3,-8.715094E-2,2.9668322E-1,-6.0748477E-2,5.591981E-1,2.7355823E-1,-5.0546795E-2],"split_indices":[7,1,2,0,6,1,1,0,0,0,0,0,0],"split_type":[0,0,0,0,0,0,0,0,0,0,0,0,0],"sum_hessian":[2.737632E2,2.2834763E1,2.5092845E2,6.889821E0,1.5944941E1,2.3340558E2,1.7522867E1,4.945094E0,1.0999846E1,2.3079872E2,2.606866E0,1.4804475E1,2.7183926E0],"tree_param":{"num_deleted":"0","num_feature":"8","num_nodes":"13","size_leaf_vector":"1"}},{"base_weights":[-4.3384112E-2,2.0345426E0,-3.1913137E-1,2.2632859E0,-8.1269994E-2,-6.010346E-1,1.5762432E0,3.08861E-1,1.7265438E-1,3.7780407E-1,-7.258657E-2,4.212609E-1,-9.0974614E-2],"categories":[],"categories_nodes":[],"categories_segments":[],"categories_sizes":[],"default_left":[0,0,0,0,0,0,0,0,0,0,0,0,0],"id":3,"left_children":[1,3,5,7,-1,9,11,-1,-1,-1,-1,-1,-1],"loss_changes":[1.5541896E2,2.2537872E1,1.2882507E2,7.815979E0,0E0,1.1702828E2,2.087327E2,0E0,0E0,0E0,0E0,0E0,0E0],"parents":[2147483647,0,0,1,1,2,2,3,3,5,5,6,6],"right_children":[2,4,6,8,-1,10,12,-1,-1,-1,-1,-1,-1],"split_conditions":[3.7504185E-3,1.542E3,3.016E2,1.481E3,-8.1269994E-2,3.344517E4,5.5134098E4,3.08861E-1,1.7265438E-1,3.7780407E-1,-7.258657E-2,4.212609E-1,-9.0974614E-2],"split_indices":[7,1,0,1,0,5,5,0,0,0,0,0,0],"split_type":[0,0,0,0,0,0,0,0,0,0,0,0,0],"sum_hessian":[2.6911234E2,3.0780897E1,2.3833142E2,2.8681744E1,2.0991545E0,2.0806792E2,3.0263504E1,9.428933E0,1.925281E1,4.955731E0,2.0311218E2,1.4350455E1,1.5913049E1],"tree_param":{"num_deleted":"0","num_feature":"8","num_nodes":"13","size_leaf_vector":"1"}},{"base_weights":[-4.4349317E-2,-2.4060017E-1,2.2658236E0,1.3791163E0,-6.0212314E-1,2.4549751E0,-6.799888E-2,1.7950632E-2,2.8279114E-1,2.6575837E-1,-7.2703E-2,8.4987536E-2,2.56529E-1],"categories":[],"categories_nodes":[],"categories_segments":[],"categories_sizes":[],"default_left":[0,0,0,0,0,0,0,0,0,0,0,0,0],"id":4,"left_children":[1,3,5,7,9,11,-1,-1,-1,-1,-1,-1,-1],"loss_changes":[1.2084137E2,1.4456561E2,1.3299072E1,7.786622E1,8.3921745E1,1.3309021E0,0E0,0E0,0E0,0E0,0E0,0E0,0E0],"parents":[2147483647,0,0,1,1,2,2,3,3,4,4,5,5],"right_children":[2,4,6,8,10,12,-1,-1,-1,-1,-1,-1,-1],"split_conditions":[1.6762349E7,1.383E3,1.542E3,3.016E2,3.344517E4,1.87E2,-6.799888E-2,1.7950632E-2,2.8279114E-1,2.6575837E-1,-7.2703E-2,8.4987536E-2,2.56529E-1],"split_indices":[6,1,1,0,5,2,0,0,0,0,0,0,0],"split_type":[0,0,0,0,0,0,0,0,0,0,0,0,0],"sum_hessian":[2.6433585E2,2.4446428E2,1.9871563E1,4.4094555E1,2.0036972E2,1.882916E1,1.0424038E0,2.4736502E1,1.9358051E1,6.646211E0,1.9372351E2,1.7706082E0,1.7058552E1],"tree_param":{"num_deleted":"0","num_feature":"8","num_nodes":"13","size_leaf_vector":"1"}},{"base_weights":[-4.3143995E-2,1.4943802E0,-3.1315878E-1,-7.891761E-2,1.6476873E0,-5.8411837E-1,1.028608E0,2.4019182E-1,1.20630614E-1,-8.008771E-2,1.3777837E-1,2.1535452E-1,-8.8671364E-2],"categories":[],"categories_nodes":[],"categories_segments":[],"categories_sizes":[],"default_left":[0,0,0,0,0,0,0,0,0,0,0,0,0],"id":5,"left_children":[1,3,5,-1,7,9,11,-1,-1,-1,-1,-1,-1],"loss_changes":[1.08189026E2,1.4930496E1,8.114435E1,0E0,9.356171E0,7.975719E1,8.288785E1,0E0,0E0,0E0,0E0,0E0,0E0],"parents":[2147483647,0,0,1,1,2,2,4,4,5,5,6,6],"right_children":[2,4,6,-1,8,10,12,-1,-1,-1,-1,-1,-1],"split_conditions":[3.8441846E-3,5.25E1,3.016E2,-7.891761E-2,1.481E3,2.03E2,5.5134098E4,2.4019182E-1,1.20630614E-1,-8.008771E-2,1.3777837E-1,2.1535452E-1,-8.8671364E-2],"split_indices":[7,3,0,0,1,2,5,0,0,0,0,0,0],"split_type":[0,0,0,0,0,0,0,0,0,0,0,0,0],"sum_hessian":[2.5847232E2,3.7933887E1,2.2053844E2,2.1255455E0,3.5808342E1,1.8395483E2,3.658361E1,1.1579501E1,2.422884E1,1.6618576E2,1.7769072E1,2.296882E1,1.3614791E1],"tree_param":{"num_deleted":"0","num_feature":"8","num_nodes":"13","size_leaf_vector":"1"}},{"base_weights":[-4.261359E-2,-2.6483026E-1,1.4950268E0,9.539391E-1,-6.0962665E-1,-2.8925923E-1,1.9358817E0,2.3808645E-2,1.8580277E-1,2.810998E-1,-7.214648E-2,1.1561232E-1,-8.711753E-2,2.3246722E-1,-5.77586E-2],"categories":[],"categories_nodes":[],"categories_segments":[],"categories_sizes":[],"default_left":[0,0,0,0,0,0,0,0,0,0,0,0,0,0,0],"id":6,"left_children":[1,3,5,7,9,11,13,-1,-1,-1,-1,-1,-1,-1,-1],"loss_changes":[8.697617E1,9.397408E1,2.584623E1,3.152821E1,6.853324E1,7.095742E0,2.6659286E1,0E0,0E0,0E0,0E0,0E0,0E0,0E0,0E0],"parents":[2147483647,0,0,1,1,2,2,3,3,4,4,5,5,6,6],"right_children":[2,4,6,8,10,12,14,-1,-1,-1,-1,-1,-1,-1,-1],"split_conditions":[2.03E2,1.383E3,1.541252E3,3.02E2,1.43E1,1.1374859E7,1.542E3,2.3808645E-2,1.8580277E-1,2.810998E-1,-7.214648E-2,1.1561232E-1,-8.711753E-2,2.3246722E-1,-5.77586E-2],"split_indices":[2,1,1,0,3,6,1,0,0,0,0,0,0,0,0],"split_type":[0,0,0,0,0,0,0,0,0,0,0,0,0,0,0],"sum_hessian":[2.5238878E2,2.2124297E2,3.1145817E1,4.839875E1,1.7284421E2,6.238877E0,2.4906939E1,2.7716396E1,2.0682354E1,4.708166E0,1.6813605E2,1.5075706E0,4.731306E0,2.1635422E1,3.271517E0],"tree_param":{"num_deleted":"0","num_feature":"8","num_nodes":"15","size_leaf_vector":"1"}},{"base_weights":[-4.0680252E-2,1.5057397E0,-2.6182875E-1,2.3623489E-1,9.469206E-1,-4.5651016E-1,1.1742312E0,-8.74009E-2,1.582716E-1,-7.5165495E-2,7.365122E-2,-1.9467317E-2,1.5395229E-1],"categories":[],"categories_nodes":[],"categories_segments":[],"categories_sizes":[],"default_left":[0,0,0,0,0,0,0,0,0,0,0,0,0],"id":7,"left_children":[1,3,5,-1,7,9,11,-1,-1,-1,-1,-1,-1],"loss_changes":[8.5140976E1,1.2675293E1,6.138636E1,0E0,2.51426E1,6.829677E1,1.3432941E1,0E0,0E0,0E0,0E0,0E0,0E0],"parents":[2147483647,0,0,1,1,2,2,4,4,5,5,6,6],"right_children":[2,4,6,-1,8,10,12,-1,-1,-1,-1,-1,-1],"split_conditions":[3.6241256E-3,1.481E3,2.05E2,2.3623489E-1,1.6762349E7,3.016E2,1.541252E3,-8.74009E-2,1.582716E-1,-7.5165495E-2,7.365122E-2,-1.9467317E-2,1.5395229E-1],"split_indices":[7,1,2,0,6,0,1,0,0,0,0,0,0],"split_type":[0,0,0,0,0,0,0,0,0,0,0,0,0],"sum_hessian":[2.4680582E2,3.015224E1,2.1665358E2,1.0630082E1,1.9522158E1,1.913897E2,2.526389E1,4.95533E0,1.4566829E1,1.537284E2,3.7661293E1,5.4199805E0,1.984391E1],"tree_param":{"num_deleted":"0","num_feature":"8","num_nodes":"13","size_leaf_vector":"1"}},{"base_weights":[-3.87098E-2,-2.5364056E-1,1.2972413E0,-6.5757453E-1,3.9916593E-1,1.4174336E0,-7.325054E-2,-8.9621276E-2,7.461966E-2,-9.64863E-3,1.459323E-1,1.9950831E-1,1.0049629E-1],"categories":[],"categories_nodes":[],"categories_segments":[],"categories_sizes":[],"default_left":[0,0,0,0,0,0,0,0,0,0,0,0,0],"id":8,"left_children":[1,3,5,7,9,11,-1,-1,-1,-1,-1,-1,-1],"loss_changes":[6.9572E1,5.5259396E1,9.231304E0,4.395674E1,4.2359962E1,5.6305923E0,0E0,0E0,0E0,0E0,0E0,0E0,0E0],"parents":[2147483647,0,0,1,1,2,2,3,3,4,4,5,5],"right_children":[2,4,6,8,10,12,-1,-1,-1,-1,-1,-1,-1],"split_conditions":[8.446061E4,5.618407E-3,1.542E3,2.06E2,3.02E2,1.481E3,-7.325054E-2,-8.9621276E-2,7.461966E-2,-9.64863E-3,1.459323E-1,1.9950831E-1,1.0049629E-1],"split_indices":[5,7,1,2,0,1,0,0,0,0,0,0,0],"split_type":[0,0,0,0,0,0,0,0,0,0,0,0,0],"sum_hessian":[2.4014955E2,2.0756601E2,3.2583534E1,1.282204E2,7.934562E1,3.104676E1,1.536776E0,1.098993E2,1.8321089E1,5.4686966E1,2.4658651E1,1.1335257E1,1.9711504E1],"tree_param":{"num_deleted":"0","num_feature":"8","num_nodes":"13","size_leaf_vector":"1"}},{"base_weights":[-3.6887262E-2,1.0435789E0,-2.6518625E-1,-7.4672766E-2,1.1440461E0,-7.047769E-1,3.558611E-1,7.5203426E-2,1.6183892E-1,-8.15772E-2,1.302036E-1,-1.4336789E-2,1.1684592E-1],"categories":[],"categories_nodes":[],"categories_segments":[],"categories_sizes":[],"default_left":[0,0,0,0,0,0,0,0,0,0,0,0,0],"id":9,"left_children":[1,3,5,-1,7,9,11,-1,-1,-1,-1,-1,-1],"loss_changes":[5.8105976E1,8.246468E0,5.3307526E1,0E0,6.0923843E0,2.648442E1,3.311272E1,0E0,0E0,0E0,0E0,0E0,0E0],"parents":[2147483647,0,0,1,1,2,2,4,4,5,5,6,6],"right_children":[2,4,6,-1,8,10,12,-1,-1,-1,-1,-1,-1],"split_conditions":[3.8441846E-3,5.25E1,5.618407E-3,-7.4672766E-2,1.87E2,2.2E2,3.016E2,7.5203426E-2,1.6183892E-1,-8.15772E-2,1.302036E-1,-1.4336789E-2,1.1684592E-1],"split_indices":[7,3,7,0,2,2,0,0,0,0,0,0,0],"split_type":[0,0,0,0,0,0,0,0,0,0,0,0,0],"sum_hessian":[2.3344029E2,4.0098026E1,1.9334227E2,1.7888311E0,3.8309196E1,1.1313094E2,8.021133E1,2.2390451E1,1.5918745E1,1.077641E2,5.36684E0,5.019625E1,3.0015078E1],"tree_param":{"num_deleted":"0","num_feature":"8","num_nodes":"13","size_leaf_vector":"1"}},{"base_weights":[-3.4763772E-2,1.0913717E0,-2.1937288E-1,1.7819618E-1,6.3667995E-1,2.296417E0,-3.1952572E-1,-8.8574976E-2,1.19670846E-1,3.035729E-1,-6.3955374E-2,-5.2932262E-2,8.463502E-2],"categories":[],"categories_nodes":[],"categories_segments":[],"categories_sizes":[],"default_left":[0,0,0,0,0,0,0,0,0,0,0,0,0],"id":10,"left_children":[1,3,5,-1,7,9,11,-1,-1,-1,-1,-1,-1],"loss_changes":[4.760745E1,8.994614E0,5.026682E1,0E0,1.8970636E1,1.8543625E1,4.690668E1,0E0,0E0,0E0,0E0,0E0,0E0],"parents":[2147483647,0,0,1,1,2,2,4,4,5,5,6,6],"right_children":[2,4,6,-1,8,10,12,-1,-1,-1,-1,-1,-1],"split_conditions":[3.6241256E-3,1.481E3,1.7E1,1.7819618E-1,1.6762349E7,3.344517E4,2.03E2,-8.8574976E-2,1.19670846E-1,3.035729E-1,-6.3955374E-2,-5.2932262E-2,8.463502E-2],"split_indices":[7,1,3,0,6,5,2,0,0,0,0,0,0],"split_type":[0,0,0,0,0,0,0,0,0,0,0,0,0],"sum_hessian":[2.268461E2,3.1257877E1,1.9558821E2,1.125088E1,2.0006998E1,6.6486354E0,1.8893958E2,5.224003E0,1.4782995E1,5.2840676E0,1.3645681E0,1.6058807E2,2.8351501E1],"tree_param":{"num_deleted":"0","num_feature":"8","num_nodes":"13","size_leaf_vector":"1"}},{"base_weights":[-3.1608704E-2,-2.3225877E-1,8.6889654E-1,-6.7559457E-1,3.3791822E-1,-7.4690394E-2,9.6011245E-1,-8.777547E-2,3.302888E-2,-1.3750504E-2,1.0759541E-1,6.1552852E-2,1.38494E-1],"categories":[],"categories_nodes":[],"categories_segments":[],"categories_sizes":[],"default_left":[0,0,0,0,0,0,0,0,0,0,0,0,0],"id":11,"left_children":[1,3,5,7,9,-1,11,-1,-1,-1,-1,-1,-1],"loss_changes":[4.04077E1,4.6426334E1,6.7242355E0,2.126532E1,2.843246E1,0E0,4.859207E0,0E0,0E0,0E0,0E0,0E0,0E0],"parents":[2147483647,0,0,1,1,2,2,3,3,4,4,6,6],"right_children":[2,4,6,8,10,-1,12,-1,-1,-1,-1,-1,-1],"split_conditions":[8.076161E4,5.618407E-3,5.25E1,2.06E2,3.016E2,-7.4690394E-2,1.87E2,-8.777547E-2,3.302888E-2,-1.3750504E-2,1.0759541E-1,6.1552852E-2,1.38494E-1],"split_indices":[5,7,3,2,0,0,2,0,0,0,0,0,0],"split_type":[0,0,0,0,0,0,0,0,0,0,0,0,0],"sum_hessian":[2.2151749E2,1.8175993E2,3.9757565E1,1.0214958E2,7.9610344E1,1.7403663E0,3.8017197E1,8.516142E1,1.6988165E1,4.891456E1,3.0695784E1,2.2343193E1,1.5674005E1],"tree_param":{"num_deleted":"0","num_feature":"8","num_nodes":"13","size_leaf_vector":"1"}},{"base_weights":[-3.0202843E-2,9.276126E-1,-1.9248657E-1,1.5826803E-1,4.9425513E-1,-2.8415182E-1,2.0943732E0,-8.8004515E-2,1.0034659E-1,-4.899181E-2,7.137625E-2,2.7297813E-1,-6.0476195E-2],"categories":[],"categories_nodes":[],"categories_segments":[],"categories_sizes":[],"default_left":[0,0,0,0,0,0,0,0,0,0,0,0,0],"id":12,"left_children":[1,3,5,-1,7,9,11,-1,-1,-1,-1,-1,-1],"loss_changes":[3.3814648E1,8.166737E0,3.95586E1,0E0,1.5177935E1,3.7225975E1,1.4141115E1,0E0,0E0,0E0,0E0,0E0,0E0],"parents":[2147483647,0,0,1,1,2,2,4,4,5,5,6,6],"right_children":[2,4,6,-1,8,10,12,-1,-1,-1,-1,-1,-1],"split_conditions":[3.6241256E-3,1.481E3,2.207E3,1.5826803E-1,1.6762349E7,2.03E2,3.344517E4,-8.8004515E-2,1.0034659E-1,-4.899181E-2,7.137625E-2,2.7297813E-1,-6.0476195E-2],"split_indices":[7,1,1,0,6,2,5,0,0,0,0,0,0],"split_type":[0,0,0,0,0,0,0,0,0,0,0,0,0],"sum_hessian":[2.1539577E2,3.0523994E1,1.8487178E2,1.1097204E1,1.9426788E1,1.7858905E2,6.282722E0,5.055185E0,1.4371605E1,1.4848172E2,3.0107327E1,5.076339E0,1.2063831E0],"tree_param":{"num_deleted":"0","num_feature":"8","num_nodes":"13","size_leaf_vector":"1"}},{"base_weights":[-2.70699E-2,-2.0275907E-1,7.381918E-1,-6.5356123E-1,3.1749144E-1,1.2783296E0,4.385007E-1,-7.7481106E-2,8.934384E-2,-8.0823265E-3,1.0668724E-1,7.779408E-4,1.4693184E-1,-8.217374E-2,1.0443302E-1],"categories":[],"categories_nodes":[],"categories_segments":[],"categories_sizes":[],"default_left":[0,0,0,0,0,0,0,0,0,0,0,0,0,0,0],"id":13,"left_children":[1,3,5,7,9,11,13,-1,-1,-1,-1,-1,-1,-1,-1],"loss_changes":[2.8561201E1,4.0698555E1,5.8613205E0,1.8103653E1,2.4211067E1,3.2971783E0,2.1500786E1,0E0,0E0,0E0,0E0,0E0,0E0,0E0,0E0],"parents":[2147483647,0,0,1,1,2,2,3,3,4,4,5,5,6,6],"right_children":[2,4,6,8,10,12,14,-1,-1,-1,-1,-1,-1,-1,-1],"split_conditions":[8.076161E4,5.602757E-3,1.481E3,2.2E2,3.02E2,8.553949E4,1.6762349E7,-7.7481106E-2,8.934384E-2,-8.0823265E-3,1.0668724E-1,7.779408E-4,1.4693184E-1,-8.217374E-2,1.0443302E-1],"split_indices":[5,7,1,2,0,5,6,0,0,0,0,0,0,0,0],"split_type":[0,0,0,0,0,0,0,0,0,0,0,0,0,0,0],"sum_hessian":[2.103195E2,1.7164761E2,3.86719E1,9.1824524E1,7.982308E1,1.26347E1,2.6037203E1,8.561351E1,6.2110114E0,5.2702522E1,2.7120564E1,1.7870579E0,1.0847642E1,8.337425E0,1.7699778E1],"tree_param":{"num_deleted":"0","num_feature":"8","num_nodes":"15","size_leaf_vector":"1"}},{"base_weights":[-2.5113728E-2,1.6930833E0,-1.0091642E-1,2.143749E-1,-5.9935015E-2,-2.9621965E-1,6.725602E-1,-5.826473E-2,5.2803457E-2,7.548453E-2,-7.6079935E-2],"categories":[],"categories_nodes":[],"categories_segments":[],"categories_sizes":[],"default_left":[0,0,0,0,0,0,0,0,0,0,0],"id":14,"left_children":[1,3,5,-1,-1,7,9,-1,-1,-1,-1],"loss_changes":[2.6822266E1,1.0275534E1,2.9947107E1,0E0,0E0,3.7590668E1,5.292654E0,0E0,0E0,0E0,0E0],"parents":[2147483647,0,0,1,1,2,2,5,5,6,6],"right_children":[2,4,6,-1,-1,8,10,-1,-1,-1,-1],"split_conditions":[1.7E1,3.344517E4,8.01451E4,2.143749E-1,-5.9935015E-2,3.016E2,1.542E3,-5.826473E-2,5.2803457E-2,7.548453E-2,-7.6079935E-2],"split_indices":[3,5,5,0,0,0,1,0,0,0,0],"split_type":[0,0,0,0,0,0,0,0,0,0,0],"sum_hessian":[2.0362679E2,7.702442E0,1.9592435E2,6.4912057E0,1.2112367E0,1.569192E2,3.900515E1,1.1666971E2,4.0249496E1,3.7335217E1,1.669934E0],"tree_param":{"num_deleted":"0","num_feature":"8","num_nodes":"11","size_leaf_vector":"1"}},{"base_weights":[-2.3693241E-2,-1.972112E-1,7.6037633E-1,5.070272E-1,-5.005738E-1,-4.3283388E-1,1.0312202E0,7.473268E-2,-1.2486738E-1,1.4406751E-1,-6.482056E-2,6.3391685E-2,-8.7141946E-2,1.290511E-1,-6.4623915E-2],"categories":[],"categories_nodes":[],"categories_segments":[],"categories_sizes":[],"default_left":[0,0,0,0,0,0,0,0,0,0,0,0,0,0,0],"id":15,"left_children":[1,3,5,7,9,11,13,-1,-1,-1,-1,-1,-1,-1,-1],"loss_changes":[2.7326841E1,3.536631E1,1.2210663E1,2.2019243E1,3.3999004E1,4.032671E0,1.3866724E1,0E0,0E0,0E0,0E0,0E0,0E0,0E0,0E0],"parents":[2147483647,0,0,1,1,2,2,3,3,4,4,5,5,6,6],"right_children":[2,4,6,8,10,12,14,-1,-1,-1,-1,-1,-1,-1,-1],"split_conditions":[2.03E2,1.383E3,1.541252E3,3.122E2,1.7E1,1.1374859E7,1.542E3,7.473268E-2,-1.2486738E-1,1.4406751E-1,-6.482056E-2,6.3391685E-2,-8.7141946E-2,1.290511E-1,-6.4623915E-2],"split_indices":[2,1,1,4,3,6,1,0,0,0,0,0,0,0,0],"split_type":[0,0,0,0,0,0,0,0,0,0,0,0,0,0,0],"sum_hessian":[1.9875638E2,1.6335393E2,3.540245E1,4.897952E1,1.1437441E2,6.4386616E0,2.8963789E1,4.3588043E1,5.3914747E0,7.464406E0,1.0691001E2,1.7461698E0,4.692492E0,2.5285929E1,3.6778588E0],"tree_param":{"num_deleted":"0","num_feature":"8","num_nodes":"15","size_leaf_vector":"1"}},{"base_weights":[-2.315739E-2,-1.77463E-1,7.0747596E-1,4.346373E-1,-4.547387E-1,-3.3560795E-1,9.2254716E-1,6.437425E-2,-1.17333844E-1,1.238394E-1,-6.0288884E-2,8.806051E-2,-8.492425E-2,1.13625444E-1,-5.9622575E-2],"categories":[],"categories_nodes":[],"categories_segments":[],"categories_sizes":[],"default_left":[0,0,0,0,0,0,0,0,0,0,0,0,0,0,0],"id":16,"left_children":[1,3,5,7,9,11,13,-1,-1,-1,-1,-1,-1,-1,-1],"loss_changes":[2.2178972E1,2.774373E1,8.006418E0,1.7940845E1,2.8888388E1,4.8696127E0,9.996265E0,0E0,0E0,0E0,0E0,0E0,0E0,0E0,0E0],"parents":[2147483647,0,0,1,1,2,2,3,3,4,4,5,5,6,6],"right_children":[2,4,6,8,10,12,14,-1,-1,-1,-1,-1,-1,-1,-1],"split_conditions":[2.05E2,1.383E3,1.541252E3,3.122E2,3.344517E4,1.1374859E7,1.542E3,6.437425E-2,-1.17333844E-1,1.238394E-1,-6.0288884E-2,8.806051E-2,-8.492425E-2,1.13625444E-1,-5.9622575E-2],"split_indices":[2,1,1,4,5,6,1,0,0,0,0,0,0,0,0],"split_type":[0,0,0,0,0,0,0,0,0,0,0,0,0,0,0],"sum_hessian":[1.9461168E2,1.613026E2,3.330908E1,5.011146E1,1.1119113E2,5.5981073E0,2.7710972E1,4.487541E1,5.236054E0,8.354356E0,1.0283678E2,1.4500762E0,4.148031E0,2.4513523E1,3.19745E0],"tree_param":{"num_deleted":"0","num_feature":"8","num_nodes":"15","size_leaf_vector":"1"}},{"base_weights":[-2.232356E-2,7.737439E-1,-1.5871501E-1,1.3260432E-1,4.017438E-1,2.3244552E-1,-5.340345E-1,-8.393321E-2,8.1895374E-2,-8.929011E-3,8.06865E-2,-7.988471E-2,2.9554963E-2],"categories":[],"categories_nodes":[],"categories_segments":[],"categories_sizes":[],"default_left":[0,0,0,0,0,0,0,0,0,0,0,0,0],"id":17,"left_children":[1,3,5,-1,7,9,11,-1,-1,-1,-1,-1,-1],"loss_changes":[2.0966085E1,5.271288E0,2.4306494E1,0E0,1.0170508E1,1.5107157E1,1.8769697E1,0E0,0E0,0E0,0E0,0E0,0E0],"parents":[2147483647,0,0,1,1,2,2,4,4,5,5,6,6],"right_children":[2,4,6,-1,8,10,12,-1,-1,-1,-1,-1,-1],"split_conditions":[3.6241256E-3,1.481E3,5.5793324E4,1.3260432E-1,1.6762349E7,3.02E2,2.06E2,-8.393321E-2,8.1895374E-2,-8.929011E-3,8.06865E-2,-7.988471E-2,2.9554963E-2],"split_indices":[7,1,5,0,6,0,2,0,0,0,0,0,0],"split_type":[0,0,0,0,0,0,0,0,0,0,0,0,0],"sum_hessian":[1.9096808E2,2.7249523E1,1.6371855E2,9.934858E0,1.7314665E1,8.0353874E1,8.336468E1,4.1016617E0,1.3213003E1,5.204675E1,2.8307123E1,6.3220905E1,2.0143772E1],"tree_param":{"num_deleted":"0","num_feature":"8","num_nodes":"13","size_leaf_vector":"1"}},{"base_weights":[-2.0857101E-2,7.271903E-1,-1.48012E-1,1.8518564E-1,1.0563878E0,2.0998785E-1,-5.1043653E-1,-3.4602515E-2,7.25617E-2,7.865237E-2,1.3214736E-1,6.9120354E-3,1.4331353E-1,-8.049329E-2,2.1445928E-2],"categories":[],"categories_nodes":[],"categories_segments":[],"categories_sizes":[],"default_left":[0,0,0,0,0,0,0,0,0,0,0,0,0,0,0],"id":18,"left_children":[1,3,5,7,9,11,13,-1,-1,-1,-1,-1,-1,-1,-1],"loss_changes":[1.7847256E1,4.6692085E0,2.0897495E1,3.5568867E0,1.5888214E-1,1.3912289E1,1.7233356E1,0E0,0E0,0E0,0E0,0E0,0E0,0E0,0E0],"parents":[2147483647,0,0,1,1,2,2,3,3,4,4,5,5,6,6],"right_children":[2,4,6,8,10,12,14,-1,-1,-1,-1,-1,-1,-1,-1],"split_conditions":[3.6241256E-3,6.08E1,5.5793324E4,3.479913E-3,1.7487046E7,2.101E3,1.98E2,-3.4602515E-2,7.25617E-2,7.865237E-2,1.3214736E-1,6.9120354E-3,1.4331353E-1,-8.049329E-2,2.1445928E-2],"split_indices":[7,3,5,7,6,1,2,0,0,0,0,0,0,0,0],"split_type":[0,0,0,0,0,0,0,0,0,0,0,0,0,0,0],"sum_hessian":[1.855014E2,2.6265215E1,1.5923619E2,1.0515155E1,1.575006E1,8.031868E1,7.891751E1,5.4842243E0,5.030931E0,9.770495E0,5.9795656E0,7.297123E1,7.3474445E0,5.6040188E1,2.287732E1],"tree_param":{"num_deleted":"0","num_feature":"8","num_nodes":"15","size_leaf_vector":"1"}},{"base_weights":[-1.8224709E-2,-9.144442E-2,7.7524826E-2,-9.68389E-2,5.777604E-1,4.6579238E-2,-4.2648345E-2,7.014994E-2,-5.2206434E-2],"categories":[],"categories_nodes":[],"categories_segments":[],"categories_sizes":[],"default_left":[0,0,0,0,0,0,0,0,0],"id":19,"left_children":[1,-1,3,5,7,-1,-1,-1,-1],"loss_changes":[1.5742111E1,0E0,1.4527614E1,2.3175947E1,6.221936E0,0E0,0E0,0E0,0E0],"parents":[2147483647,0,0,2,2,3,3,4,4],"right_children":[2,-1,4,6,8,-1,-1,-1,-1],"split_conditions":[3.0000787E2,-9.144442E-2,1.94E2,1.388E3,1.542E3,4.6579238E-2,-4.2648345E-2,7.014994E-2,-5.2206434E-2],"split_indices":[0,0,2,1,1,0,0,0,0],"split_type":[0,0,0,0,0,0,0,0,0],"sum_hessian":[1.8162141E2,1.6705635E1,1.6491579E2,1.2288797E2,4.2027813E1,4.5247448E1,7.7640526E1,3.8103085E1,3.9247282E0],"tree_param":{"num_deleted":"0","num_feature":"8","num_nodes":"9","size_leaf_vector":"1"}},{"base_weights":[-1.7959973E-2,-1.5703873E-1,5.8478874E-1,1.8677883E-1,-5.715607E-1,-6.845058E-2,6.580168E-1,3.002104E-2,-1.180125E-1,-6.9537364E-2,5.116737E-2,2.9679796E-2,9.1426186E-2],"categories":[],"categories_nodes":[],"categories_segments":[],"categories_sizes":[],"default_left":[0,0,0,0,0,0,0,0,0,0,0,0,0],"id":20,"left_children":[1,3,5,7,9,-1,11,-1,-1,-1,-1,-1,-1],"loss_changes":[1.5156726E1,2.102938E1,3.601695E0,1.291332E1,9.315588E0,0E0,2.742814E0,0E0,0E0,0E0,0E0,0E0,0E0],"parents":[2147483647,0,0,1,1,2,2,3,3,4,4,6,6],"right_children":[2,4,6,8,10,-1,12,-1,-1,-1,-1,-1,-1],"split_conditions":[8.076161E4,5.5793324E4,5.25E1,3.122E2,2.2E2,-6.845058E-2,1.44E2,3.002104E-2,-1.180125E-1,-6.9537364E-2,5.116737E-2,2.9679796E-2,9.1426186E-2],"split_indices":[5,5,3,4,2,0,2,0,0,0,0,0,0],"split_type":[0,0,0,0,0,0,0,0,0,0,0,0,0],"sum_hessian":[1.7870862E2,1.4580492E2,3.290369E1,7.99999E1,6.580502E1,1.3394151E0,3.1564276E1,7.459044E1,5.4094625E0,5.93764E1,6.4286227E0,1.3994717E1,1.756956E1],"tree_param":{"num_deleted":"0","num_feature":"8","num_nodes":"13","size_leaf_vector":"1"}},{"base_weights":[-1.7562985E-2,-8.9784406E-2,6.832724E-2,1.2882718E-1,-1.0910354E-1,3.4016147E-3,1.4721484E-1],"categories":[],"categories_nodes":[],"categories_segments":[],"categories_sizes":[],"default_left":[0,0,0,0,0,0,0],"id":21,"left_children":[1,-1,3,5,-1,-1,-1],"loss_changes":[1.3425996E1,0E0,1.1501978E1,1.9670586E1,0E0,0E0,0E0],"parents":[2147483647,0,0,2,2,3,3],"right_children":[2,-1,4,6,-1,-1,-1],"split_conditions":[3.0000787E2,-8.9784406E-2,3.122E2,3.027E2,-1.0910354E-1,3.4016147E-3,1.4721484E-1],"split_indices":[0,0,4,0,0,0,0],"split_type":[0,0,0,0,0,0,0],"sum_hessian":[1.7576344E2,1.478455E1,1.609789E2,1.5383983E2,7.1390657E0,1.4465544E2,9.184396E0],"tree_param":{"num_deleted":"0","num_feature":"8","num_nodes":"7","size_leaf_vector":"1"}},{"base_weights":[-1.6691012E-2,-9.416228E-2,9.326738E-1,-1.5878938E-1,1.3081621E0,4.6671784E-1,1.2338171E-1,3.0765444E-2,-3.8466338E-2,1.470605E-1,5.6839764E-2,1.0940206E-1,-7.3404826E-2],"categories":[],"categories_nodes":[],"categories_segments":[],"categories_sizes":[],"default_left":[0,0,0,0,0,0,0,0,0,0,0,0,0],"id":22,"left_children":[1,3,5,7,9,11,-1,-1,-1,-1,-1,-1,-1],"loss_changes":[1.2999951E1,1.5000265E1,1.2956038E0,1.6651392E1,4.1235924E-2,5.958416E0,0E0,0E0,0E0,0E0,0E0,0E0,0E0],"parents":[2147483647,0,0,1,1,2,2,3,3,4,4,5,5],"right_children":[2,4,6,8,10,12,-1,-1,-1,-1,-1,-1,-1],"split_conditions":[1.7487046E7,2.437E3,5.99E1,1.383E3,2.5619375E6,8.908437E4,1.2338171E-1,3.0765444E-2,-3.8466338E-2,1.470605E-1,5.6839764E-2,1.0940206E-1,-7.3404826E-2],"split_indices":[6,1,3,1,6,5,0,0,0,0,0,0,0],"split_type":[0,0,0,0,0,0,0,0,0,0,0,0,0],"sum_hessian":[1.745594E2,1.6222234E2,1.2337056E1,1.5592328E2,6.299067E0,5.844201E0,6.492855E0,5.0753033E1,1.0517024E2,4.35486E0,1.9442074E0,3.897153E0,1.947048E0],"tree_param":{"num_deleted":"0","num_feature":"8","num_nodes":"13","size_leaf_vector":"1"}},{"base_weights":[-1.3458842E-2,-1.4724685E-1,5.394677E-1,2.5788713E-1,-3.785473E-1,-3.7602046E-1,7.210019E-1,4.2383097E-2,-1.07482195E-1,9.71023E-2,-5.335767E-2,6.858579E-2,-8.327227E-2,8.838296E-2,-5.5591084E-2],"categories":[],"categories_nodes":[],"categories_segments":[],"categories_sizes":[],"default_left":[0,0,0,0,0,0,0,0,0,0,0,0,0,0,0],"id":23,"left_children":[1,3,5,7,9,11,13,-1,-1,-1,-1,-1,-1,-1,-1],"loss_changes":[1.2813752E1,1.315969E1,5.8804436E0,1.1790644E1,1.9167732E1,3.5984993E0,6.4189396E0,0E0,0E0,0E0,0E0,0E0,0E0,0E0,0E0],"parents":[2147483647,0,0,1,1,2,2,3,3,4,4,5,5,6,6],"right_children":[2,4,6,8,10,12,14,-1,-1,-1,-1,-1,-1,-1,-1],"split_conditions":[2.05E2,1.388E3,1.541252E3,3.122E2,3.344517E4,1.1374859E7,1.542E3,4.2383097E-2,-1.07482195E-1,9.71023E-2,-5.335767E-2,6.858579E-2,-8.327227E-2,8.838296E-2,-5.5591084E-2],"split_indices":[2,1,1,4,5,6,1,0,0,0,0,0,0,0,0],"split_type":[0,0,0,0,0,0,0,0,0,0,0,0,0,0,0],"sum_hessian":[1.7114368E2,1.3839165E2,3.2752026E1,5.025414E1,8.8137505E1,5.2424874E0,2.7509537E1,4.529603E1,4.9581103E0,8.539086E0,7.959842E1,1.4257392E0,3.8167484E0,2.4671364E1,2.8381722E0],"tree_param":{"num_deleted":"0","num_feature":"8","num_nodes":"15","size_leaf_vector":"1"}},{"base_weights":[-1.3273709E-2,6.422049E-1,-1.254003E-1,1.2027496E-1,2.6363513E-1,-2.0190129E-1,1.1261317E0,-8.1451885E-2,6.38715E-2,-4.16681E-2,3.4440264E-2,1.6759479E-1,-6.901186E-2],"categories":[],"categories_nodes":[],"categories_segments":[],"categories_sizes":[],"default_left":[0,0,0,0,0,0,0,0,0,0,0,0,0],"id":24,"left_children":[1,3,5,-1,7,9,11,-1,-1,-1,-1,-1,-1],"loss_changes":[1.2534662E1,4.970166E0,1.4161488E1,0E0,7.052257E0,1.6335789E1,9.680285E0,0E0,0E0,0E0,0E0,0E0,0E0],"parents":[2147483647,0,0,1,1,2,2,4,4,5,5,6,6],"right_children":[2,4,6,-1,8,10,12,-1,-1,-1,-1,-1,-1],"split_conditions":[3.6241256E-3,1.481E3,2.101E3,1.2027496E-1,1.6762349E7,3.016E2,3.344517E4,-8.1451885E-2,6.38715E-2,-4.16681E-2,3.4440264E-2,1.6759479E-1,-6.901186E-2],"split_indices":[7,1,1,0,6,0,5,0,0,0,0,0,0],"split_type":[0,0,0,0,0,0,0,0,0,0,0,0,0],"sum_hessian":[1.6845181E2,2.3915747E1,1.4453607E2,8.763146E0,1.51526E1,1.3700047E2,7.535597E0,3.608502E0,1.1544098E1,9.850891E1,3.8491558E1,5.8438053E0,1.6917918E0],"tree_param":{"num_deleted":"0","num_feature":"8","num_nodes":"13","size_leaf_vector":"1"}},{"base_weights":[-1.1356419E-2,-1.498778E-1,5.002255E-1,5.497819E-1,-2.7725604E-1,-4.4809303E-1,6.814188E-1,1.1445174E-1,4.491643E-3,-5.7057183E-2,3.1007836E-2,3.4127694E-2,-8.161419E-2,8.308949E-2,-5.5787425E-2],"categories":[],"categories_nodes":[],"categories_segments":[],"categories_sizes":[],"default_left":[0,0,0,0,0,0,0,0,0,0,0,0,0,0,0],"id":25,"left_children":[1,3,5,7,9,11,13,-1,-1,-1,-1,-1,-1,-1,-1],"loss_changes":[1.1781407E1,1.1806313E1,6.393117E0,6.0965004E0,1.934916E1,2.1050014E0,6.0472784E0,0E0,0E0,0E0,0E0,0E0,0E0,0E0,0E0],"parents":[2147483647,0,0,1,1,2,2,3,3,4,4,5,5,6,6],"right_children":[2,4,6,8,10,12,14,-1,-1,-1,-1,-1,-1,-1,-1],"split_conditions":[2.03E2,3.6241256E-3,1.541252E3,1.481E3,3.016E2,1.1374859E7,1.542E3,1.1445174E-1,4.491643E-3,-5.7057183E-2,3.1007836E-2,3.4127694E-2,-8.161419E-2,8.308949E-2,-5.5787425E-2],"split_indices":[2,7,1,1,0,6,1,0,0,0,0,0,0,0,0],"split_type":[0,0,0,0,0,0,0,0,0,0,0,0,0,0,0],"sum_hessian":[1.6419339E2,1.297641E2,3.4429287E1,1.9475185E1,1.1028892E2,5.2867584E0,2.9142527E1,8.36003E0,1.1115155E1,7.357432E1,3.67146E1,1.704273E0,3.5824854E0,2.6299927E1,2.8426E0],"tree_param":{"num_deleted":"0","num_feature":"8","num_nodes":"15","size_leaf_vector":"1"}},{"base_weights":[-1.0763929E-2,-8.661532E-2,6.264435E-2,1.2121303E-1,-1.0434813E0,3.5922595E-3,1.23276114E-1,-3.6225047E-2,-1.1272179E-1],"categories":[],"categories_nodes":[],"categories_segments":[],"categories_sizes":[],"default_left":[0,0,0,0,0,0,0,0,0],"id":26,"left_children":[1,-1,3,5,7,-1,-1,-1,-1],"loss_changes":[1.02068205E1,0E0,9.833612E0,1.3531586E1,2.7418137E-2,0E0,0E0,0E0,0E0],"parents":[2147483647,0,0,2,2,3,3,4,4],"right_children":[2,-1,4,6,8,-1,-1,-1,-1],"split_conditions":[3.0000787E2,-8.661532E-2,3.122E2,3.027E2,3.123E2,3.5922595E-3,1.23276114E-1,-3.6225047E-2,-1.1272179E-1],"split_indices":[0,0,4,0,4,0,0,0,0],"split_type":[0,0,0,0,0,0,0,0,0],"sum_hessian":[1.6068388E2,1.1846266E1,1.4883762E2,1.421987E2,6.6389174E0,1.3302394E2,9.17477E0,1.3097384E0,5.3291793E0],"tree_param":{"num_deleted":"0","num_feature":"8","num_nodes":"9","size_leaf_vector":"1"}},{"base_weights":[-1.0804513E-2,-1.5776145E-1,3.931539E-1,-2.391394E-1,1.0149181E0,-3.9991444E-1,5.476523E-1,1.8346868E-2,-5.8565106E-2,1.5655717E-1,-6.900331E-2,-8.3281465E-2,3.3548627E-2,6.992894E-2,-5.416906E-2],"categories":[],"categories_nodes":[],"categories_segments":[],"categories_sizes":[],"default_left":[0,0,0,0,0,0,0,0,0,0,0,0,0,0,0],"id":27,"left_children":[1,3,5,7,9,11,13,-1,-1,-1,-1,-1,-1,-1,-1],"loss_changes":[9.5971155E0,1.1550022E1,5.5038433E0,1.6451199E1,8.477927E0,2.7022295E0,6.4115458E0,0E0,0E0,0E0,0E0,0E0,0E0,0E0,0E0],"parents":[2147483647,0,0,1,1,2,2,3,3,4,4,5,5,6,6],"right_children":[2,4,6,8,10,12,14,-1,-1,-1,-1,-1,-1,-1,-1],"split_conditions":[1.94E2,2.101E3,1.541252E3,1.413E3,3.344517E4,3.021E2,1.542E3,1.8346868E-2,-5.8565106E-2,1.5655717E-1,-6.900331E-2,-8.3281465E-2,3.3548627E-2,6.992894E-2,-5.416906E-2],"split_indices":[2,1,1,1,5,0,1,0,0,0,0,0,0,0,0],"split_type":[0,0,0,0,0,0,0,0,0,0,0,0,0,0,0],"sum_hessian":[1.5961943E2,1.17487755E2,4.213167E1,1.10608185E2,6.879566E0,6.6104693E0,3.5521202E1,5.0044315E1,6.0563873E1,5.2618723E0,1.617694E0,4.0776563E0,2.5328126E0,3.1495129E1,4.026074E0],"tree_param":{"num_deleted":"0","num_feature":"8","num_nodes":"15","size_leaf_vector":"1"}},{"base_weights":[-1.0557989E-2,-1.2805305E-1,5.0281364E-1,1.3644862E-1,-4.9484074E-1,8.8796604E-1,2.6646283E-1,4.182068E-3,1.7688088E-1,-9.1967575E-2,-2.0698272E-2,-5.534596E-3,1.09839655E-1,-7.090163E-2,6.7879334E-2],"categories":[],"categories_nodes":[],"categories_segments":[],"categories_sizes":[],"default_left":[0,0,0,0,0,0,0,0,0,0,0,0,0,0,0],"id":28,"left_children":[1,3,5,7,9,11,13,-1,-1,-1,-1,-1,-1,-1,-1],"loss_changes":[9.576206E0,1.25942745E1,2.455389E0,1.1635339E1,6.452053E0,2.2080393E0,8.427137E0,0E0,0E0,0E0,0E0,0E0,0E0,0E0,0E0],"parents":[2147483647,0,0,1,1,2,2,3,3,4,4,5,5,6,6],"right_children":[2,4,6,8,10,12,14,-1,-1,-1,-1,-1,-1,-1,-1],"split_conditions":[8.076161E4,5.5793324E4,1.481E3,2.16E2,1.541252E3,8.553949E4,1.6762349E7,4.182068E-3,1.7688088E-1,-9.1967575E-2,-2.0698272E-2,-5.534596E-3,1.09839655E-1,-7.090163E-2,6.7879334E-2],"split_indices":[5,5,1,2,1,5,6,0,0,0,0,0,0,0,0],"split_type":[0,0,0,0,0,0,0,0,0,0,0,0,0,0,0],"sum_hessian":[1.5669287E2,1.2812056E2,2.8572311E1,7.480466E1,5.3315907E1,9.817286E0,1.8755026E1,7.167526E1,3.1293962E0,2.0647871E1,3.2668034E1,1.9249882E0,7.8922973E0,5.358504E0,1.33965225E1],"tree_param":{"num_deleted":"0","num_feature":"8","num_nodes":"15","size_leaf_vector":"1"}},{"base_weights":[-9.246679E-3,-8.427899E-1,5.567394E-2,-9.1125764E-2,-3.4191146E-2,1.139736E-1,-9.74225E-1,3.1902592E-3,1.2232099E-1,-3.8835645E-2,-1.1003257E-1],"categories":[],"categories_nodes":[],"categories_segments":[],"categories_sizes":[],"default_left":[0,0,0,0,0,0,0,0,0,0,0],"id":29,"left_children":[1,3,5,-1,-1,7,9,-1,-1,-1,-1],"loss_changes":[8.42706E0,7.429981E-2,8.79374E0,0E0,0E0,1.2501808E1,1.5277958E-1,0E0,0E0,0E0,0E0],"parents":[2147483647,0,0,1,1,2,2,5,5,6,6],"right_children":[2,4,6,-1,-1,8,10,-1,-1,-1,-1],"split_conditions":[3.0000787E2,2.993E2,3.121E2,-9.1125764E-2,-3.4191146E-2,3.027E2,3.123E2,3.1902592E-3,1.2232099E-1,-3.8835645E-2,-1.1003257E-1],"split_indices":[0,0,4,0,0,0,4,0,0,0,0],"split_type":[0,0,0,0,0,0,0,0,0,0,0],"sum_hessian":[1.5386044E2,1.0251772E1,1.4360867E2,8.298136E0,1.9536359E0,1.367566E2,6.8520694E0,1.2829312E2,8.463487E0,1.9361901E0,4.9158792E0],"tree_param":{"num_deleted":"0","num_feature":"8","num_nodes":"11","size_leaf_vector":"1"}},{"base_weights":[-9.642462E-3,-1.1818054E-1,4.7341943E-1,-1.967364E-1,1.0925263E0,-5.948001E-2,5.3594637E-1,-4.074058E-2,2.5466645E-2,1.5193798E-1,-6.1019596E-2,2.1809489E-2,7.549321E-2],"categories":[],"categories_nodes":[],"categories_segments":[],"categories_sizes":[],"default_left":[0,0,0,0,0,0,0,0,0,0,0,0,0],"id":30,"left_children":[1,3,5,7,9,-1,11,-1,-1,-1,-1,-1,-1],"loss_changes":[8.125278E0,1.2243164E1,2.2180915E0,1.1478325E1,6.6387434E0,0E0,1.7418036E0,0E0,0E0,0E0,0E0,0E0,0E0],"parents":[2147483647,0,0,1,1,2,2,3,3,4,4,6,6],"right_children":[2,4,6,8,10,-1,12,-1,-1,-1,-1,-1,-1],"split_conditions":[8.076161E4,2.101E3,5.25E1,3.016E2,3.344517E4,-5.948001E-2,1.44E2,-4.074058E-2,2.5466645E-2,1.5193798E-1,-6.1019596E-2,2.1809489E-2,7.549321E-2],"split_indices":[5,1,3,0,5,0,2,0,0,0,0,0,0],"split_type":[0,0,0,0,0,0,0,0,0,0,0,0,0],"sum_hessian":[1.5290494E2,1.25468956E2,2.7435984E1,1.18610504E2,6.858454E0,1.0464009E0,2.6389582E1,8.093545E1,3.7675053E1,5.569835E0,1.288619E0,1.1578972E1,1.4810611E1],"tree_param":{"num_deleted":"0","num_feature":"8","num_nodes":"13","size_leaf_vector":"1"}},{"base_weights":[-8.325511E-3,-8.247391E-2,7.223802E-1,-1.6498594E-1,6.3055277E-1,2.167968E-1,3.454131E-1,-3.4072623E-2,2.3122957E-2,-4.012097E-2,8.213391E-2,-2.1345181E-2,1.0250064E-1],"categories":[],"categories_nodes":[],"categories_segments":[],"categories_sizes":[],"default_left":[0,0,0,0,0,0,0,0,0,0,0,0,0],"id":31,"left_children":[1,3,5,7,9,-1,11,-1,-1,-1,-1,-1,-1],"loss_changes":[8.220939E0,8.202589E0,6.869242E0,8.724741E0,3.1807485E0,0E0,4.881886E0,0E0,0E0,0E0,0E0,0E0,0E0],"parents":[2147483647,0,0,1,1,2,2,3,3,4,4,6,6],"right_children":[2,4,6,8,10,-1,12,-1,-1,-1,-1,-1,-1],"split_conditions":[2.16E2,6.08E1,4.70976E4,3.016E2,8.553949E4,2.167968E-1,1.5884133E7,-3.4072623E-2,2.3122957E-2,-4.012097E-2,8.213391E-2,-2.1345181E-2,1.0250064E-1],"split_indices":[2,3,5,0,5,0,6,0,0,0,0,0,0],"split_type":[0,0,0,0,0,0,0,0,0,0,0,0,0],"sum_hessian":[1.4963237E2,1.3665266E2,1.2979704E1,1.2316815E2,1.34845085E1,1.7019631E0,1.12777405E1,8.542028E1,3.7747875E1,1.9322225E0,1.1552286E1,6.564952E0,4.7127886E0],"tree_param":{"num_deleted":"0","num_feature":"8","num_nodes":"13","size_leaf_vector":"1"}},{"base_weights":[-5.668803E-3,1.0047432E-1,-5.183133E-1,-3.4124836E-2,1.2841612E0,-1.1972471E0,3.0488655E-1,-2.7011395E-2,3.8168598E-2,1.4976436E-1,-5.279813E-2,-1.3688138E-1,-5.334374E-2,1.10731676E-1,-1.05663754E-1],"categories":[],"categories_nodes":[],"categories_segments":[],"categories_sizes":[],"default_left":[0,0,0,0,0,0,0,0,0,0,0,0,0,0,0],"id":32,"left_children":[1,3,5,7,9,11,13,-1,-1,-1,-1,-1,-1,-1,-1],"loss_changes":[8.115664E0,1.9737507E1,1.4662797E1,1.1089559E1,5.683153E0,8.895855E-1,1.4673246E1,0E0,0E0,0E0,0E0,0E0,0E0,0E0,0E0],"parents":[2147483647,0,0,1,1,2,2,3,3,4,4,5,5,6,6],"right_children":[2,4,6,8,10,12,14,-1,-1,-1,-1,-1,-1,-1,-1],"split_conditions":[3.11E2,3.02E2,3.03E2,1.89E2,1.383E3,3.026E2,3.123E2,-2.7011395E-2,3.8168598E-2,1.4976436E-1,-5.279813E-2,-1.3688138E-1,-5.334374E-2,1.10731676E-1,-1.05663754E-1],"split_indices":[4,0,0,2,1,0,4,0,0,0,0,0,0,0,0],"split_type":[0,0,0,0,0,0,0,0,0,0,0,0,0,0,0],"sum_hessian":[1.471904E2,1.2260834E2,2.4582067E1,1.1096184E2,1.1646498E1,1.3222463E1,1.1359605E1,7.101079E1,3.9951046E1,1.0574325E1,1.0721738E0,9.662945E0,3.5595179E0,7.2647486E0,4.0948563E0],"tree_param":{"num_deleted":"0","num_feature":"8","num_nodes":"15","size_leaf_vector":"1"}},{"base_weights":[-6.102357E-3,8.965017E-1,-6.250935E-2,1.1604406E0,-5.4680932E-2,-1.8044388E-1,4.2710128E-1,-2.583932E-2,1.4655739E-1,-3.4125205E-2,2.550908E-2,8.3067045E-2,1.8002622E-2],"categories":[],"categories_nodes":[],"categories_segments":[],"categories_sizes":[],"default_left":[0,0,0,0,0,0,0,0,0,0,0,0,0],"id":33,"left_children":[1,3,5,7,-1,9,11,-1,-1,-1,-1,-1,-1],"loss_changes":[7.5067506E0,3.9383578E0,8.084082E0,3.6915798E0,0E0,7.963045E0,2.564107E0,0E0,0E0,0E0,0E0,0E0,0E0],"parents":[2147483647,0,0,1,1,2,2,3,3,5,5,6,6],"right_children":[2,4,6,8,-1,10,12,-1,-1,-1,-1,-1,-1],"split_conditions":[1.7E1,3.344517E4,8.076161E4,1.542E3,-5.4680932E-2,1.98E2,1.481E3,-2.583932E-2,1.4655739E-1,-3.4125205E-2,2.550908E-2,8.3067045E-2,1.8002622E-2],"split_indices":[3,5,5,1,0,2,1,0,0,0,0,0,0],"split_type":[0,0,0,0,0,0,0,0,0,0,0,0,0],"sum_hessian":[1.4534148E2,7.6726756E0,1.3766881E2,6.652177E0,1.0204989E0,1.11453896E2,2.6214905E1,1.2045132E0,5.4476633E0,8.155765E1,2.9896252E1,9.057876E0,1.7157028E1],"tree_param":{"num_deleted":"0","num_feature":"8","num_nodes":"13","size_leaf_vector":"1"}},{"base_weights":[-4.553725E-3,6.999031E-2,-6.087897E-1,-6.6803664E-2,8.9418083E-1,-1.2539957E0,4.1031163E-2,-2.9705439E-2,3.0632174E-2,1.1422695E-1,-6.933274E-2,-1.383065E-1,-5.3410094E-2,9.880711E-2,-1.01244286E-1],"categories":[],"categories_nodes":[],"categories_segments":[],"categories_sizes":[],"default_left":[0,0,0,0,0,0,0,0,0,0,0,0,0,0,0],"id":34,"left_children":[1,3,5,7,9,11,13,-1,-1,-1,-1,-1,-1,-1,-1],"loss_changes":[6.5564694E0,1.4674984E1,6.7534676E0,9.722591E0,8.08685E0,9.529114E-3,9.912005E0,0E0,0E0,0E0,0E0,0E0,0E0,0E0,0E0],"parents":[2147483647,0,0,1,1,2,2,3,3,4,4,5,5,6,6],"right_children":[2,4,6,8,10,12,14,-1,-1,-1,-1,-1,-1,-1,-1],"split_conditions":[3.115E2,3.02E2,3.032E2,1.86E2,1.383E3,1.61E2,3.123E2,-2.9705439E-2,3.0632174E-2,1.1422695E-1,-6.933274E-2,-1.383065E-1,-5.3410094E-2,9.880711E-2,-1.01244286E-1],"split_indices":[4,0,0,2,1,2,4,0,0,0,0,0,0,0,0],"split_type":[0,0,0,0,0,0,0,0,0,0,0,0,0,0,0],"sum_hessian":[1.4361687E2,1.2863184E2,1.4985024E1,1.1110953E2,1.7522316E1,7.0526776E0,7.9323463E0,6.883577E1,4.2273758E1,1.5396659E1,2.1256566E0,5.1992955E0,1.8533822E0,4.2098804E0,3.7224662E0],"tree_param":{"num_deleted":"0","num_feature":"8","num_nodes":"15","size_leaf_vector":"1"}},{"base_weights":[-5.4767067E-3,8.6255646E-1,-5.9268337E-2,-2.4124995E-2,1.07481495E-1,2.9614814E-2,-6.711581E-1,-4.0049795E-3,7.785517E-2,-4.2593297E-2,-9.041945E-2],"categories":[],"categories_nodes":[],"categories_segments":[],"categories_sizes":[],"default_left":[0,0,0,0,0,0,0,0,0,0,0],"id":35,"left_children":[1,3,5,-1,-1,7,9,-1,-1,-1,-1],"loss_changes":[6.7159276E0,2.2258282E0,7.38076E0,0E0,0E0,6.2469683E0,5.982866E-1,0E0,0E0,0E0,0E0],"parents":[2147483647,0,0,1,1,2,2,5,5,6,6],"right_children":[2,4,6,-1,-1,8,10,-1,-1,-1,-1],"split_conditions":[1.7E1,1.542E3,1.546E3,-2.4124995E-2,1.07481495E-1,1.7487046E7,1.689E3,-4.0049795E-3,7.785517E-2,-4.2593297E-2,-9.041945E-2],"split_indices":[3,1,1,0,0,6,1,0,0,0,0],"split_type":[0,0,0,0,0,0,0,0,0,0,0],"sum_hessian":[1.4173697E2,7.393485E0,1.3434349E2,1.1704124E0,6.223073E0,1.1813482E2,1.6208672E1,1.0894728E2,9.187533E0,9.275638E0,6.933034E0],"tree_param":{"num_deleted":"0","num_feature":"8","num_nodes":"11","size_leaf_vector":"1"}},{"base_weights":[-4.917209E-3,-7.9980177E-1,4.9920134E-2,-8.835062E-2,-2.5397716E-2,1.5770961E-1,-4.5916203E-1,7.089299E-4,1.0254388E-1,-1.1076879E-1,3.0235542E-2],"categories":[],"categories_nodes":[],"categories_segments":[],"categories_sizes":[],"default_left":[0,0,0,0,0,0,0,0,0,0,0],"id":36,"left_children":[1,3,5,-1,-1,7,9,-1,-1,-1,-1],"loss_changes":[6.189455E0,1.9426489E-1,7.3659697E0,0E0,0E0,1.4426275E1,1.1931187E1,0E0,0E0,0E0,0E0],"parents":[2147483647,0,0,1,1,2,2,5,5,6,6],"right_children":[2,4,6,-1,-1,8,10,-1,-1,-1,-1],"split_conditions":[3.0000787E2,2.993E2,3.11E2,-8.835062E-2,-2.5397716E-2,3.016E2,3.03E2,7.089299E-4,1.0254388E-1,-1.1076879E-1,3.0235542E-2],"split_indices":[0,0,4,0,0,0,0,0,0,0,0],"split_type":[0,0,0,0,0,0,0,0,0,0,0],"sum_hessian":[1.4007869E2,8.163351E0,1.3191533E2,6.541519E0,1.6218318E0,1.0943462E2,2.248071E1,9.4107605E1,1.5327016E1,1.1895579E1,1.058513E1],"tree_param":{"num_deleted":"0","num_feature":"8","num_nodes":"11","size_leaf_vector":"1"}},{"base_weights":[-5.481691E-3,7.96432E-1,-5.5455197E-2,1.0694386E0,-5.5566877E-2,-1.6383328E-1,3.8851166E-1,-2.3045762E-2,1.3539945E-1,-3.446607E-2,1.952996E-2,7.934013E-2,1.3438399E-2],"categories":[],"categories_nodes":[],"categories_segments":[],"categories_sizes":[],"default_left":[0,0,0,0,0,0,0,0,0,0,0,0,0],"id":37,"left_children":[1,3,5,7,-1,9,11,-1,-1,-1,-1,-1,-1],"loss_changes":[5.659718E0,3.6526275E0,6.4555473E0,2.988347E0,0E0,7.047208E0,2.605891E0,0E0,0E0,0E0,0E0,0E0,0E0],"parents":[2147483647,0,0,1,1,2,2,3,3,5,5,6,6],"right_children":[2,4,6,8,-1,10,12,-1,-1,-1,-1,-1,-1],"split_conditions":[1.7E1,3.344517E4,8.076161E4,1.542E3,-5.5566877E-2,3.016E2,1.481E3,-2.3045762E-2,1.3539945E-1,-3.446607E-2,1.952996E-2,7.934013E-2,1.3438399E-2],"split_indices":[3,5,5,1,0,0,1,0,0,0,0,0,0],"split_type":[0,0,0,0,0,0,0,0,0,0,0,0,0],"sum_hessian":[1.3912802E2,7.2853026E0,1.3184271E2,6.2353578E0,1.0499449E0,1.0648043E2,2.536228E1,1.1539669E0,5.081391E0,7.084798E1,3.5632454E1,8.9618025E0,1.6400476E1],"tree_param":{"num_deleted":"0","num_feature":"8","num_nodes":"13","size_leaf_vector":"1"}},{"base_weights":[-4.146508E-3,-7.27001E-2,6.0956377E-1,-1.4359628E-1,5.247498E-1,1.8042414E-1,2.608838E-1,7.058604E-2,-2.0437103E-2,-4.1969035E-2,7.245811E-2,-2.3179436E-2,9.252601E-2],"categories":[],"categories_nodes":[],"categories_segments":[],"categories_sizes":[],"default_left":[0,0,0,0,0,0,0,0,0,0,0,0,0],"id":38,"left_children":[1,3,5,7,9,-1,11,-1,-1,-1,-1,-1,-1],"loss_changes":[5.8387475E0,5.360698E0,5.338337E0,5.9433465E0,2.8427403E0,0E0,4.1304836E0,0E0,0E0,0E0,0E0,0E0,0E0],"parents":[2147483647,0,0,1,1,2,2,3,3,4,4,6,6],"right_children":[2,4,6,8,10,-1,12,-1,-1,-1,-1,-1,-1],"split_conditions":[2.16E2,6.08E1,4.70976E4,1.7E1,8.553949E4,1.8042414E-1,1.5884133E7,7.058604E-2,-2.0437103E-2,-4.1969035E-2,7.245811E-2,-2.3179436E-2,9.252601E-2],"split_indices":[2,3,5,3,5,0,6,0,0,0,0,0,0],"split_type":[0,0,0,0,0,0,0,0,0,0,0,0,0],"sum_hessian":[1.3672643E2,1.2378117E2,1.29452505E1,1.113299E2,1.2451271E1,1.9815164E0,1.0963735E1,6.724622E0,1.0460528E2,1.9823047E0,1.04689665E1,6.6692E0,4.2945347E0],"tree_param":{"num_deleted":"0","num_feature":"8","num_nodes":"13","size_leaf_vector":"1"}},{"base_weights":[-1.439432E-3,4.4623177E-2,-8.718272E-1,-3.191899E-2,8.869038E-1,-2.980699E-2,-1.0110972E-1,6.725891E-3,-1.2456322E-1,1.1841768E-1,-6.0774893E-2],"categories":[],"categories_nodes":[],"categories_segments":[],"categories_sizes":[],"default_left":[0,0,0,0,0,0,0,0,0,0,0],"id":39,"left_children":[1,3,5,7,9,-1,-1,-1,-1,-1,-1],"loss_changes":[5.4946218E0,8.421694E0,2.4904585E-1,1.4565961E1,5.553975E0,0E0,0E0,0E0,0E0,0E0,0E0],"parents":[2147483647,0,0,1,1,2,2,3,3,4,4],"right_children":[2,4,6,8,10,-1,-1,-1,-1,-1,-1],"split_conditions":[3.121E2,3.026E2,3.123E2,3.11E2,1.378E3,-2.980699E-2,-1.0110972E-1,6.725891E-3,-1.2456322E-1,1.1841768E-1,-6.0774893E-2],"split_indices":[4,0,4,4,1,0,0,0,0,0,0],"split_type":[0,0,0,0,0,0,0,0,0,0,0],"sum_hessian":[1.3507884E2,1.2919057E2,5.8882837E0,1.1931035E2,9.880212E0,1.7634687E0,4.124815E0,1.11170685E2,8.139667E0,8.414391E0,1.4658219E0],"tree_param":{"num_deleted":"0","num_feature":"8","num_nodes":"11","size_leaf_vector":"1"}},{"base_weights":[-2.8971804E-3,-8.664518E-2,4.2083506E-2,1.4564723E-1,-3.843311E-1,1.4686328E-4,1.1448524E-1,-8.2847595E-2,2.7024169E-2],"categories":[],"categories_nodes":[],"categories_segments":[],"categories_sizes":[],"default_left":[0,0,0,0,0,0,0,0,0],"id":40,"left_children":[1,-1,3,5,7,-1,-1,-1,-1],"loss_changes":[5.2934165E0,0E0,5.7788463E0,1.5123953E1,7.665962E0,0E0,0E0,0E0,0E0],"parents":[2147483647,0,0,2,2,3,3,4,4],"right_children":[2,-1,4,6,8,-1,-1,-1,-1],"split_conditions":[2.993E2,-8.664518E-2,3.108E2,3.016E2,3.03E2,1.4686328E-4,1.1448524E-1,-8.2847595E-2,2.7024169E-2],"split_indices":[0,0,4,0,0,0,0,0,0],"split_type":[0,0,0,0,0,0,0,0,0],"sum_hessian":[1.3433752E2,5.746748E0,1.2859077E2,1.0399247E2,2.4598312E1,9.1754395E1,1.2238073E1,1.44964285E1,1.0101883E1],"tree_param":{"num_deleted":"0","num_feature":"8","num_nodes":"9","size_leaf_vector":"1"}},{"base_weights":[-3.0906415E-3,-1.9168837E-1,1.9905181E-1,9.6046194E-2,-4.9609518E-1,-7.6640226E-2,2.5464925E-1,2.442317E-2,-6.9843605E-2,-7.183296E-2,7.742009E-2,3.553327E-2,-2.728031E-2],"categories":[],"categories_nodes":[],"categories_segments":[],"categories_sizes":[],"default_left":[0,0,0,0,0,0,0,0,0,0,0,0,0],"id":41,"left_children":[1,3,5,7,9,-1,11,-1,-1,-1,-1,-1,-1],"loss_changes":[5.1626067E0,6.182996E0,3.7039728E0,4.508684E0,1.0210865E1,0E0,3.4192495E0,0E0,0E0,0E0,0E0,0E0,0E0],"parents":[2147483647,0,0,1,1,2,2,3,3,4,4,6,6],"right_children":[2,4,6,8,10,-1,12,-1,-1,-1,-1,-1,-1],"split_conditions":[1.44E2,1.449E3,3.099E2,1.21E2,2.101E3,-7.6640226E-2,3.105E2,2.442317E-2,-6.9843605E-2,-7.183296E-2,7.742009E-2,3.553327E-2,-2.728031E-2],"split_indices":[2,1,4,2,1,0,4,0,0,0,0,0,0],"split_type":[0,0,0,0,0,0,0,0,0,0,0,0,0],"sum_hessian":[1.3341672E2,6.904751E1,6.436921E1,3.5847675E1,3.3199833E1,2.8088284E0,6.156038E1,3.079621E1,5.0514674E0,2.8626272E1,4.5735617E0,5.1966927E1,9.5934515E0],"tree_param":{"num_deleted":"0","num_feature":"8","num_nodes":"13","size_leaf_vector":"1"}},{"base_weights":[-4.3261405E-3,3.2545753E-2,-9.8316066E-2,-2.2969633E-2,9.177841E-1,6.8679415E-3,-9.5085E-2,1.2410518E-1,-5.3381104E-2],"categories":[],"categories_nodes":[],"categories_segments":[],"categories_sizes":[],"default_left":[0,0,0,0,0,0,0,0,0],"id":42,"left_children":[1,3,-1,5,7,-1,-1,-1,-1],"loss_changes":[4.8269377E0,6.360714E0,0E0,1.0471001E1,4.246145E0,0E0,0E0,0E0,0E0],"parents":[2147483647,0,0,1,1,3,3,4,4],"right_children":[2,4,-1,6,8,-1,-1,-1,-1],"split_conditions":[3.123E2,3.03E2,-9.8316066E-2,3.11E2,1.378E3,6.8679415E-3,-9.5085E-2,1.2410518E-1,-5.3381104E-2],"split_indices":[4,0,0,4,1,0,0,0,0],"split_type":[0,0,0,0,0,0,0,0,0],"sum_hessian":[1.3185515E2,1.2800023E2,3.8549135E0,1.21363304E2,6.636927E0,1.1129628E2,1.0067027E1,5.5467243E0,1.0902029E0],"tree_param":{"num_deleted":"0","num_feature":"8","num_nodes":"9","size_leaf_vector":"1"}},{"base_weights":[-4.9014897E-3,-4.8107784E-2,8.142079E-1,-8.4712386E-2,-7.943632E-3,1.5035257E-1,2.9936782E-1,2.889061E-3,-9.5366575E-2,-7.843674E-2,1.20157935E-1],"categories":[],"categories_nodes":[],"categories_segments":[],"categories_sizes":[],"default_left":[0,0,0,0,0,0,0,0,0,0,0],"id":43,"left_children":[1,3,5,-1,7,-1,9,-1,-1,-1,-1],"loss_changes":[4.7197223E0,4.0551767E0,1.9213853E0,0E0,4.2608023E0,0E0,5.9035425E0,0E0,0E0,0E0,0E0],"parents":[2147483647,0,0,1,1,2,2,4,4,6,6],"right_children":[2,4,6,-1,8,-1,10,-1,-1,-1,-1],"split_conditions":[2.25E2,2.993E2,1.2614223E7,-8.4712386E-2,3.123E2,1.5035257E-1,3.9952244E1,2.889061E-3,-9.5366575E-2,-7.843674E-2,1.20157935E-1],"split_indices":[2,0,6,0,4,0,3,0,0,0,0],"split_type":[0,0,0,0,0,0,0,0,0,0,0],"sum_hessian":[1.312538E2,1.2557144E2,5.6823606E0,5.0483923E0,1.2052305E2,1.608445E0,4.0739155E0,1.1693797E2,3.5850809E0,1.9101105E0,2.163805E0],"tree_param":{"num_deleted":"0","num_feature":"8","num_nodes":"11","size_leaf_vector":"1"}},{"base_weights":[-4.5897453E-3,-4.5090213E-2,7.6814616E-1,3.6311883E-1,-1.21202596E-1,1.0227699E0,-5.1320638E-3,8.530661E-2,5.144168E-3,-1.8192422E-2,7.997524E-2,1.5342757E-1,3.636334E-2],"categories":[],"categories_nodes":[],"categories_segments":[],"categories_sizes":[],"default_left":[0,0,0,0,0,0,0,0,0,0,0,0,0],"id":44,"left_children":[1,3,5,7,9,11,-1,-1,-1,-1,-1,-1,-1],"loss_changes":[4.1563807E0,3.961501E0,1.4326167E0,3.0201705E0,6.1303515E0,1.1595917E0,0E0,0E0,0E0,0E0,0E0,0E0,0E0],"parents":[2147483647,0,0,1,1,2,2,3,3,4,4,5,5],"right_children":[2,4,6,8,10,12,-1,-1,-1,-1,-1,-1,-1],"split_conditions":[2.25E2,3.6704193E-3,2.36E2,1.481E3,2.101E3,3.62E1,-5.1320638E-3,8.530661E-2,5.144168E-3,-1.8192422E-2,7.997524E-2,1.5342757E-1,3.636334E-2],"split_indices":[2,7,2,1,1,3,0,0,0,0,0,0,0],"split_type":[0,0,0,0,0,0,0,0,0,0,0,0,0],"sum_hessian":[1.3070126E2,1.2508689E2,5.614378E0,1.9065138E1,1.0602175E2,4.0941553E0,1.520223E0,6.737294E0,1.2327844E1,1.002166E2,5.8051515E0,1.5576648E0,2.5364904E0],"tree_param":{"num_deleted":"0","num_feature":"8","num_nodes":"13","size_leaf_vector":"1"}},{"base_weights":[-1.6320056E-3,-8.349324E-2,3.585473E-2,7.974796E-2,-7.1968E-1,-3.0220777E-3,6.0145903E-2,-2.8212456E-2,-9.2144296E-2],"categories":[],"categories_nodes":[],"categories_segments":[],"categories_sizes":[],"default_left":[0,0,0,0,0,0,0,0,0],"id":45,"left_children":[1,-1,3,5,7,-1,-1,-1,-1],"loss_changes":[4.1047535E0,0E0,4.2289057E0,6.890321E0,3.5857058E-1,0E0,0E0,0E0,0E0],"parents":[2147483647,0,0,2,2,3,3,4,4],"right_children":[2,-1,4,6,8,-1,-1,-1,-1],"split_conditions":[2.993E2,-8.349324E-2,3.12E2,3.021E2,3.123E2,-3.0220777E-3,6.0145903E-2,-2.8212456E-2,-9.2144296E-2],"split_indices":[0,0,4,0,4,0,0,0,0],"split_type":[0,0,0,0,0,0,0,0,0],"sum_hessian":[1.2944543E2,4.656754E0,1.2478869E2,1.187824E2,6.0062847E0,9.8881714E1,1.9900686E1,2.6524074E0,3.353877E0],"tree_param":{"num_deleted":"0","num_feature":"8","num_nodes":"9","size_leaf_vector":"1"}},{"base_weights":[-2.783041E-3,-1.7854564E-1,1.7592913E-1,9.594287E-2,-4.7989416E-1,1.078647E-1,8.492307E-1,2.306342E-2,-6.4474136E-2,-6.903462E-2,6.6197686E-2,3.4902334E-2,-8.5975705E-3,1.625762E-2,9.86269E-2],"categories":[],"categories_nodes":[],"categories_segments":[],"categories_sizes":[],"default_left":[0,0,0,0,0,0,0,0,0,0,0,0,0,0,0],"id":46,"left_children":[1,3,5,7,9,11,13,-1,-1,-1,-1,-1,-1,-1,-1],"loss_changes":[4.102258E0,5.4917283E0,2.8764122E0,3.6690156E0,8.038468E0,2.833096E0,3.854699E-1,0E0,0E0,0E0,0E0,0E0,0E0,0E0,0E0],"parents":[2147483647,0,0,1,1,2,2,3,3,4,4,5,5,6,6],"right_children":[2,4,6,8,10,12,14,-1,-1,-1,-1,-1,-1,-1,-1],"split_conditions":[1.44E2,1.449E3,6.08E1,1.21E2,2.101E3,5.5793324E4,1.7487046E7,2.306342E-2,-6.4474136E-2,-6.903462E-2,6.6197686E-2,3.4902334E-2,-8.5975705E-3,1.625762E-2,9.86269E-2],"split_indices":[2,1,3,2,1,5,6,0,0,0,0,0,0,0,0],"split_type":[0,0,0,0,0,0,0,0,0,0,0,0,0,0,0],"sum_hessian":[1.2859975E2,6.483538E1,6.376437E1,3.428653E1,3.0548855E1,5.896388E1,4.800489E0,2.959363E1,4.692898E0,2.6128653E1,4.4202037E0,2.5918217E1,3.3045662E1,1.1624056E0,3.6380835E0],"tree_param":{"num_deleted":"0","num_feature":"8","num_nodes":"15","size_leaf_vector":"1"}},{"base_weights":[-2.2352112E-3,-6.1180178E-2,4.81576E-1,3.4104717E-1,-1.3600963E-1,1.3221582E0,1.9294332E-1,9.1319196E-2,-1.8608058E-3,-3.1227449E-2,2.1292595E-2,4.4162095E-2,1.648601E-1,-2.3843128E-2,8.237144E-2],"categories":[],"categories_nodes":[],"categories_segments":[],"categories_sizes":[],"default_left":[0,0,0,0,0,0,0,0,0,0,0,0,0,0,0],"id":47,"left_children":[1,3,5,7,9,11,13,-1,-1,-1,-1,-1,-1,-1,-1],"loss_changes":[3.6779373E0,3.5055392E0,3.1432283E0,3.7852042E0,6.0703506E0,2.5194216E-1,3.352058E0,0E0,0E0,0E0,0E0,0E0,0E0,0E0,0E0],"parents":[2147483647,0,0,1,1,2,2,3,3,4,4,5,5,6,6],"right_children":[2,4,6,8,10,12,14,-1,-1,-1,-1,-1,-1,-1,-1],"split_conditions":[2.16E2,3.6241256E-3,4.70976E4,1.481E3,3.016E2,2.57E1,1.5884133E7,9.1319196E-2,-1.8608058E-3,-3.1227449E-2,2.1292595E-2,4.4162095E-2,1.648601E-1,-2.3843128E-2,8.237144E-2],"split_indices":[2,7,5,1,0,3,6,0,0,0,0,0,0,0,0],"split_type":[0,0,0,0,0,0,0,0,0,0,0,0,0,0,0],"sum_hessian":[1.26934784E2,1.13927956E2,1.3006826E1,1.7312298E1,9.661566E1,2.409346E0,1.059748E1,6.088132E0,1.1224166E1,6.425985E1,3.235581E1,1.2879891E0,1.1213571E0,6.662856E0,3.934624E0],"tree_param":{"num_deleted":"0","num_feature":"8","num_nodes":"15","size_leaf_vector":"1"}},{"base_weights":[5.9308606E-4,-9.7349696E-2,2.9627815E-1,6.3328546E-1,-1.5588789E-1,3.7693733E-1,-5.2466232E-2,-4.2926222E-2,1.1813178E-1,-3.4066442E-2,1.8152041E-2,-3.817363E-2,4.904937E-2],"categories":[],"categories_nodes":[],"categories_segments":[],"categories_sizes":[],"default_left":[0,0,0,0,0,0,0,0,0,0,0,0,0],"id":48,"left_children":[1,3,5,7,9,11,-1,-1,-1,-1,-1,-1,-1],"loss_changes":[3.678103E0,4.1793423E0,2.2902737E0,4.74317E0,5.6188927E0,2.7163143E0,0E0,0E0,0E0,0E0,0E0,0E0,0E0],"parents":[2147483647,0,0,1,1,2,2,3,3,4,4,5,5],"right_children":[2,4,6,8,10,12,-1,-1,-1,-1,-1,-1,-1],"split_conditions":[2.05E2,3.344517E4,1.542E3,1.542E3,3.016E2,1.541252E3,-5.2466232E-2,-4.2926222E-2,1.1813178E-1,-3.4066442E-2,1.8152041E-2,-3.817363E-2,4.904937E-2],"split_indices":[2,5,1,1,0,1,0,0,0,0,0,0,0],"split_type":[0,0,0,0,0,0,0,0,0,0,0,0,0],"sum_hessian":[1.2500942E2,9.440834E1,3.0601074E1,6.2745996E0,8.813374E1,2.8355894E1,2.245181E0,2.2088025E0,4.065797E0,5.6941143E1,3.1192602E1,3.384213E0,2.4971682E1],"tree_param":{"num_deleted":"0","num_feature":"8","num_nodes":"13","size_leaf_vector":"1"}},{"base_weights":[4.9755356E-4,8.361656E-2,-3.6437201E-1,-4.535682E-2,9.8763233E-1,-9.0712607E-1,1.18856825E-1,-2.8111795E-2,2.4743905E-2,1.1861803E-1,-3.4627434E-2,-2.217835E-2,-1.13883965E-1,7.13745E-2,-7.675441E-2],"categories":[],"categories_nodes":[],"categories_segments":[],"categories_sizes":[],"default_left":[0,0,0,0,0,0,0,0,0,0,0,0,0,0,0],"id":49,"left_children":[1,3,5,7,9,11,13,-1,-1,-1,-1,-1,-1,-1,-1],"loss_changes":[3.81376E0,1.1985821E1,6.227227E0,6.322598E0,3.8089437E0,1.5109415E0,7.522569E0,0E0,0E0,0E0,0E0,0E0,0E0,0E0,0E0],"parents":[2147483647,0,0,1,1,2,2,3,3,4,4,5,5,6,6],"right_children":[2,4,6,8,10,12,14,-1,-1,-1,-1,-1,-1,-1,-1],"split_conditions":[3.108E2,3.016E2,3.026E2,1.86E2,9.758734E6,3.11E2,3.121E2,-2.8111795E-2,2.4743905E-2,1.1861803E-1,-3.4627434E-2,-2.217835E-2,-1.13883965E-1,7.13745E-2,-7.675441E-2],"split_indices":[4,0,0,2,6,4,4,0,0,0,0,0,0,0,0],"split_type":[0,0,0,0,0,0,0,0,0,0,0,0,0,0,0],"sum_hessian":[1.2374753E2,1.0141544E2,2.2332085E1,8.95845E1,1.1830941E1,1.0105051E1,1.2227033E1,4.964772E1,3.993678E1,1.03945E1,1.4364417E0,3.0477676E0,7.057284E0,7.433194E0,4.793839E0],"tree_param":{"num_deleted":"0","num_feature":"8","num_nodes":"15","size_leaf_vector":"1"}},{"base_weights":[-3.0585687E-4,-8.0749355E-2,3.297291E-2,1.2020315E-1,-3.4527457E-1,2.967396E-4,9.0790235E-2,-8.601274E-2,1.0877546E-2],"categories":[],"categories_nodes":[],"categories_segments":[],"categories_sizes":[],"default_left":[0,0,0,0,0,0,0,0,0],"id":50,"left_children":[1,-1,3,5,7,-1,-1,-1,-1],"loss_changes":[3.3399453E0,0E0,3.981782E0,9.027322E0,5.385581E0,0E0,0E0,0E0,0E0],"parents":[2147483647,0,0,2,2,3,3,4,4],"right_children":[2,-1,4,6,8,-1,-1,-1,-1],"split_conditions":[2.993E2,-8.0749355E-2,3.108E2,3.016E2,3.026E2,2.967396E-4,9.0790235E-2,-8.601274E-2,1.0877546E-2],"split_indices":[0,0,4,0,0,0,0,0,0],"split_type":[0,0,0,0,0,0,0,0,0],"sum_hessian":[1.2234502E2,3.9231503E0,1.1842187E2,9.678404E1,2.1637821E1,8.511925E1,1.1664798E1,9.720866E0,1.1916955E1],"tree_param":{"num_deleted":"0","num_feature":"8","num_nodes":"9","size_leaf_vector":"1"}},{"base_weights":[-9.7371824E-4,3.8334016E-2,-6.9399166E-1,-5.1194847E-2,4.8202077E-1,-9.585977E-2,-2.9802036E-1,2.550358E-3,-1.1250917E-1,6.959486E-2,-7.234544E-2,5.3870846E-2,-7.869996E-2],"categories":[],"categories_nodes":[],"categories_segments":[],"categories_sizes":[],"default_left":[0,0,0,0,0,0,0,0,0,0,0,0,0],"id":51,"left_children":[1,3,5,7,9,-1,11,-1,-1,-1,-1,-1,-1],"loss_changes":[3.3664174E0,4.671032E0,4.0930772E-1,8.119849E0,5.593004E0,0E0,2.104782E0,0E0,0E0,0E0,0E0,0E0,0E0],"parents":[2147483647,0,0,1,1,2,2,3,3,4,4,6,6],"right_children":[2,4,6,8,10,-1,12,-1,-1,-1,-1,-1,-1],"split_conditions":[3.12E2,3.021E2,3.035E2,3.106E2,1.383E3,-9.585977E-2,3.125E2,2.550358E-3,-1.1250917E-1,6.959486E-2,-7.234544E-2,5.3870846E-2,-7.869996E-2],"split_indices":[4,0,0,4,1,0,4,0,0,0,0,0,0],"split_type":[0,0,0,0,0,0,0,0,0,0,0,0,0],"sum_hessian":[1.2160264E2,1.1596957E2,5.6330676E0,9.723394E1,1.8735632E1,2.5249226E0,3.1081448E0,9.166352E1,5.5704184E0,1.627083E1,2.4648013E0,1.1089085E0,1.9992361E0],"tree_param":{"num_deleted":"0","num_feature":"8","num_nodes":"13","size_leaf_vector":"1"}},{"base_weights":[-3.0306932E-3,6.003309E-1,-4.6667553E-2,-2.4946402E-1,1.1732115E-1,1.1275294E-2,-9.009191E-2,-7.1236625E-2,5.072074E-2,-8.523065E-3,3.7443727E-2],"categories":[],"categories_nodes":[],"categories_segments":[],"categories_sizes":[],"default_left":[0,0,0,0,0,0,0,0,0,0,0],"id":52,"left_children":[1,3,5,7,-1,9,-1,-1,-1,-1,-1],"loss_changes":[3.2295504E0,4.3203855E0,5.6689816E0,1.8170675E0,0E0,3.8187914E0,0E0,0E0,0E0,0E0,0E0],"parents":[2147483647,0,0,1,1,2,2,3,3,5,5],"right_children":[2,4,6,8,-1,10,-1,-1,-1,-1,-1],"split_conditions":[3.344517E4,1.542E3,1.689E3,2.03E2,1.1732115E-1,8.076161E4,-9.009191E-2,-7.1236625E-2,5.072074E-2,-8.523065E-3,3.7443727E-2],"split_indices":[5,1,1,2,0,5,0,0,0,0,0],"split_type":[0,0,0,0,0,0,0,0,0,0,0],"sum_hessian":[1.2059817E2,7.273327E0,1.1332484E2,3.1561408E0,4.117186E0,1.0705053E2,6.2743077E0,1.9945222E0,1.1616185E0,8.518022E1,2.1870312E1],"tree_param":{"num_deleted":"0","num_feature":"8","num_nodes":"11","size_leaf_vector":"1"}},{"base_weights":[-2.5706564E-3,2.6150974E-2,-8.67318E-2,-1.9966522E-2,7.829158E-1,6.0772966E-3,-8.734586E-2,1.1165892E-1,-5.2518874E-2],"categories":[],"categories_nodes":[],"categories_segments":[],"categories_sizes":[],"default_left":[0,0,0,0,0,0,0,0,0],"id":53,"left_children":[1,3,-1,5,7,-1,-1,-1,-1],"loss_changes":[3.0093956E0,4.1114345E0,0E0,7.7429457E0,3.539598E0,0E0,0E0,0E0,0E0],"parents":[2147483647,0,0,1,1,3,3,4,4],"right_children":[2,4,-1,6,8,-1,-1,-1,-1],"split_conditions":[3.123E2,3.03E2,-8.67318E-2,3.11E2,1.378E3,6.0772966E-3,-8.734586E-2,1.1165892E-1,-5.2518874E-2],"split_indices":[4,0,0,4,1,0,0,0,0],"split_type":[0,0,0,0,0,0,0,0,0],"sum_hessian":[1.1925285E2,1.1635791E2,2.894941E0,1.1059202E2,5.7658978E0,1.01882805E2,8.709214E0,4.710693E0,1.0552046E0],"tree_param":{"num_deleted":"0","num_feature":"8","num_nodes":"9","size_leaf_vector":"1"}},{"base_weights":[-3.3001578E-3,-7.907513E-2,2.7795568E-2,8.034545E-2,-4.6158895E-1,-1.0583017E-3,6.744E-2,-9.624674E-2,4.2098477E-3],"categories":[],"categories_nodes":[],"categories_segments":[],"categories_sizes":[],"default_left":[0,0,0,0,0,0,0,0,0],"id":54,"left_children":[1,-1,3,5,7,-1,-1,-1,-1],"loss_changes":[2.9532843E0,0E0,3.0236144E0,5.717811E0,2.9188676E0,0E0,0E0,0E0,0E0],"parents":[2147483647,0,0,2,2,3,3,4,4],"right_children":[2,-1,4,6,8,-1,-1,-1,-1],"split_conditions":[2.993E2,-7.907513E-2,3.115E2,3.021E2,3.032E2,-1.0583017E-3,6.744E-2,-9.624674E-2,4.2098477E-3],"split_indices":[0,0,4,0,0,0,0,0,0],"split_type":[0,0,0,0,0,0,0,0,0],"sum_hessian":[1.1871171E2,3.5816782E0,1.15130035E2,1.0472096E2,1.0409065E1,9.1671524E1,1.304944E1,4.762391E0,5.6466746E0],"tree_param":{"num_deleted":"0","num_feature":"8","num_nodes":"9","size_leaf_vector":"1"}},{"base_weights":[-3.998565E-3,-4.7785137E-2,5.4593855E-1,5.7256085E-1,-9.454666E-2,-8.55047E-4,9.795271E-2,-2.3975996E-2,1.13245726E-1,-4.3362672E-3,-8.704819E-2,8.032688E-2,-1.0543726E-1],"categories":[],"categories_nodes":[],"categories_segments":[],"categories_sizes":[],"default_left":[0,0,0,0,0,0,0,0,0,0,0,0,0],"id":55,"left_children":[1,3,5,7,9,11,-1,-1,-1,-1,-1,-1,-1],"loss_changes":[2.8912067E0,3.2777874E0,2.1003168E0,3.8788364E0,4.1004934E0,5.011219E0,0E0,0E0,0E0,0E0,0E0,0E0,0E0],"parents":[2147483647,0,0,1,1,2,2,3,3,4,4,5,5],"right_children":[2,4,6,8,10,12,-1,-1,-1,-1,-1,-1,-1],"split_conditions":[1.7487046E7,3.344517E4,5.99E1,1.542E3,1.689E3,8.908437E4,9.795271E-2,-2.3975996E-2,1.13245726E-1,-4.3362672E-3,-8.704819E-2,8.032688E-2,-1.0543726E-1],"split_indices":[6,5,3,1,1,5,0,0,0,0,0,0,0],"split_type":[0,0,0,0,0,0,0,0,0,0,0,0,0],"sum_hessian":[1.1798402E2,1.1012858E2,7.8554444E0,6.9313884E0,1.0319719E2,3.915579E0,3.9398654E0,3.0614655E0,3.8699226E0,9.780166E1,5.3955293E0,2.3553417E0,1.5602375E0],"tree_param":{"num_deleted":"0","num_feature":"8","num_nodes":"13","size_leaf_vector":"1"}},{"base_weights":[-2.9255415E-3,-1.6170284E-1,1.4549214E-1,7.335994E-2,-4.3927372E-1,8.465733E-2,7.826639E-1,-4.695338E-3,8.807005E-2,-6.271741E-2,5.8101036E-2,8.607354E-2,2.76888E-3,1.5209453E-2,9.185167E-2],"categories":[],"categories_nodes":[],"categories_segments":[],"categories_sizes":[],"default_left":[0,0,0,0,0,0,0,0,0,0,0,0,0,0,0],"id":56,"left_children":[1,3,5,7,9,11,13,-1,-1,-1,-1,-1,-1,-1,-1],"loss_changes":[2.798965E0,3.7758014E0,2.3137574E0,3.1422162E0,5.4355893E0,2.5037827E0,3.0833054E-1,0E0,0E0,0E0,0E0,0E0,0E0,0E0,0E0],"parents":[2147483647,0,0,1,1,2,2,3,3,4,4,5,5,6,6],"right_children":[2,4,6,8,10,12,14,-1,-1,-1,-1,-1,-1,-1,-1],"split_conditions":[1.44E2,1.449E3,6.08E1,8.64094E4,2.101E3,1.48E2,1.7487046E7,-4.695338E-3,8.807005E-2,-6.271741E-2,5.8101036E-2,8.607354E-2,2.76888E-3,1.5209453E-2,9.185167E-2],"split_indices":[2,1,3,5,1,2,6,0,0,0,0,0,0,0,0],"split_type":[0,0,0,0,0,0,0,0,0,0,0,0,0,0,0],"sum_hessian":[1.1677621E2,5.637582E1,6.040039E1,3.0923635E1,2.5452185E1,5.6170322E1,4.2300706E0,2.7732641E1,3.1909943E0,2.1819159E1,3.6330254E0,2.876398E0,5.3293922E1,1.1255078E0,3.1045628E0],"tree_param":{"num_deleted":"0","num_feature":"8","num_nodes":"15","size_leaf_vector":"1"}},{"base_weights":[-5.097805E-4,-3.745942E-2,6.197523E-1,-6.5615155E-2,7.531317E-2,8.523946E-1,-1.2960935E-2,-7.048961E-2,-2.9358303E-3,1.2694314E-1,2.7003482E-2],"categories":[],"categories_nodes":[],"categories_segments":[],"categories_sizes":[],"default_left":[0,0,0,0,0,0,0,0,0,0,0],"id":57,"left_children":[1,3,5,7,-1,9,-1,-1,-1,-1,-1],"loss_changes":[2.6847742E0,2.5101244E0,1.2586598E0,2.4747715E0,0E0,9.098666E-1,0E0,0E0,0E0,0E0,0E0],"parents":[2147483647,0,0,1,1,2,2,3,3,5,5],"right_children":[2,4,6,8,-1,10,-1,-1,-1,-1,-1],"split_conditions":[2.25E2,6.75E1,2.36E2,1.304E3,7.531317E-2,3.62E1,-1.2960935E-2,-7.048961E-2,-2.9358303E-3,1.2694314E-1,2.7003482E-2],"split_indices":[2,3,2,1,0,3,0,0,0,0,0],"split_type":[0,0,0,0,0,0,0,0,0,0,0],"sum_hessian":[1.1513166E2,1.0954553E2,5.5861306E0,1.0666386E2,2.8816707E0,4.1578236E0,1.4283072E0,4.734978E0,1.0192888E2,1.7353249E0,2.4224985E0],"tree_param":{"num_deleted":"0","num_feature":"8","num_nodes":"11","size_leaf_vector":"1"}},{"base_weights":[7.3459424E-4,2.7810955E-2,-8.374145E-2,-1.5394247E-2,7.502134E-1,5.643363E-3,-7.9788804E-2,1.07058786E-1,-3.7736107E-2],"categories":[],"categories_nodes":[],"categories_segments":[],"categories_sizes":[],"default_left":[0,0,0,0,0,0,0,0,0],"id":58,"left_children":[1,3,-1,5,7,-1,-1,-1,-1],"loss_changes":[2.6524725E0,3.5445664E0,0E0,6.103228E0,2.7188776E0,0E0,0E0,0E0,0E0],"parents":[2147483647,0,0,1,1,3,3,4,4],"right_children":[2,4,-1,6,8,-1,-1,-1,-1],"split_conditions":[3.123E2,3.03E2,-8.374145E-2,3.11E2,1.376E3,5.643363E-3,-7.9788804E-2,1.07058786E-1,-3.7736107E-2],"split_indices":[4,0,0,4,1,0,0,0,0],"split_type":[0,0,0,0,0,0,0,0,0],"sum_hessian":[1.1485352E2,1.12195854E2,2.6576626E0,1.0678782E2,5.40804E0,9.86594E1,8.128416E0,4.250809E0,1.157231E0],"tree_param":{"num_deleted":"0","num_feature":"8","num_nodes":"9","size_leaf_vector":"1"}},{"base_weights":[-1.5320399E-4,-7.7061646E-2,2.8825412E-2,5.5446636E-2,-8.145001E-2,-7.828541E-4,4.802519E-2],"categories":[],"categories_nodes":[],"categories_segments":[],"categories_sizes":[],"default_left":[0,0,0,0,0,0,0],"id":59,"left_children":[1,-1,3,5,-1,-1,-1],"loss_changes":[2.5980802E0,0E0,2.5630178E0,2.9512858E0,0E0,0E0,0E0],"parents":[2147483647,0,0,2,2,3,3],"right_children":[2,-1,4,6,-1,-1,-1],"split_conditions":[2.993E2,-7.7061646E-2,3.123E2,3.024E2,-8.145001E-2,-7.828541E-4,4.802519E-2],"split_indices":[0,0,4,0,0,0,0],"split_type":[0,0,0,0,0,0,0],"sum_hessian":[1.14370255E2,3.2180624E0,1.1115219E2,1.0865649E2,2.4957032E0,9.5424484E1,1.3232002E1],"tree_param":{"num_deleted":"0","num_feature":"8","num_nodes":"7","size_leaf_vector":"1"}},{"base_weights":[-1.2273418E-3,-7.5600676E-2,2.5652528E-2,8.487293E-2,-3.2643297E-1,3.369193E-4,8.831661E-2,-9.872099E-2,1.0669049E-2],"categories":[],"categories_nodes":[],"categories_segments":[],"categories_sizes":[],"default_left":[0,0,0,0,0,0,0,0,0],"id":60,"left_children":[1,-1,3,5,7,-1,-1,-1,-1],"loss_changes":[2.3503041E0,0E0,2.361004E0,6.2813306E0,4.775687E0,0E0,0E0,0E0,0E0],"parents":[2147483647,0,0,2,2,3,3,4,4],"right_children":[2,-1,4,6,8,-1,-1,-1,-1],"split_conditions":[2.993E2,-7.5600676E-2,3.11E2,3.021E2,3.026E2,3.369193E-4,8.831661E-2,-9.872099E-2,1.0669049E-2],"split_indices":[0,0,4,0,0,0,0,0,0],"split_type":[0,0,0,0,0,0,0,0,0],"sum_hessian":[1.13889E2,2.9836462E0,1.1090535E2,9.5586716E1,1.531864E1,8.764282E1,7.9438925E0,5.5588026E0,9.759837E0],"tree_param":{"num_deleted":"0","num_feature":"8","num_nodes":"9","size_leaf_vector":"1"}},{"base_weights":[-1.8783088E-3,5.377221E-1,-3.943158E-2,-2.2036421E-1,1.0792508E-1,1.1458858E-2,-8.729772E-2,-6.8010285E-2,4.7013443E-2,-3.451888E-3,5.6032266E-2],"categories":[],"categories_nodes":[],"categories_segments":[],"categories_sizes":[],"default_left":[0,0,0,0,0,0,0,0,0,0,0],"id":61,"left_children":[1,3,5,7,-1,9,-1,-1,-1,-1,-1],"loss_changes":[2.3349664E0,3.3158438E0,4.577929E0,1.575132E0,0E0,2.6053622E0,0E0,0E0,0E0,0E0,0E0],"parents":[2147483647,0,0,1,1,2,2,3,3,5,5],"right_children":[2,4,6,8,-1,10,-1,-1,-1,-1,-1],"split_conditions":[3.344517E4,1.542E3,1.689E3,2.03E2,1.0792508E-1,1.7487046E7,-8.729772E-2,-6.8010285E-2,4.7013443E-2,-3.451888E-3,5.6032266E-2],"split_indices":[5,1,1,2,0,6,0,0,0,0,0],"split_type":[0,0,0,0,0,0,0,0,0,0,0],"sum_hessian":[1.1318231E2,6.497744E0,1.0668457E2,2.9546282E0,3.543116E0,1.0147545E2,5.2091246E0,1.7827301E0,1.1718981E0,9.4496666E1,6.978777E0],"tree_param":{"num_deleted":"0","num_feature":"8","num_nodes":"11","size_leaf_vector":"1"}},{"base_weights":[-1.2770006E-3,-4.4458687E-2,4.6550938E-1,-1.1936753E-1,2.48426E-1,1.7573442E-1,8.8120407E-1,-1.3238516E-3,-8.93875E-2,6.4433955E-2,-6.4995314E-4,8.620038E-2,-4.5484036E-2,2.895161E-2,1.0689E-1],"categories":[],"categories_nodes":[],"categories_segments":[],"categories_sizes":[],"default_left":[0,0,0,0,0,0,0,0,0,0,0,0,0,0,0],"id":62,"left_children":[1,3,5,7,9,11,13,-1,-1,-1,-1,-1,-1,-1,-1],"loss_changes":[2.2997026E0,2.3202395E0,1.0088837E0,6.8775935E0,2.1830907E0,3.3960931E0,1.0357952E-1,0E0,0E0,0E0,0E0,0E0,0E0,0E0,0E0],"parents":[2147483647,0,0,1,1,2,2,3,3,4,4,5,5,6,6],"right_children":[2,4,6,8,10,12,14,-1,-1,-1,-1,-1,-1,-1,-1],"split_conditions":[2.2E2,8.076161E4,6.93602E4,4.68E1,1.481E3,1.2801915E7,2.29E2,-1.3238516E-3,-8.93875E-2,6.4433955E-2,-6.4995314E-4,8.620038E-2,-4.5484036E-2,2.895161E-2,1.0689E-1],"split_indices":[2,5,5,3,1,6,2,0,0,0,0,0,0,0,0],"split_type":[0,0,0,0,0,0,0,0,0,0,0,0,0,0,0],"sum_hessian":[1.12064896E2,1.03403915E2,8.66098E0,8.281532E1,2.058859E1,5.9417896E0,2.7191901E0,7.372944E1,9.085887E0,7.4659686E0,1.31226225E1,2.6694987E0,3.2722912E0,1.2671455E0,1.4520446E0],"tree_param":{"num_deleted":"0","num_feature":"8","num_nodes":"15","size_leaf_vector":"1"}},{"base_weights":[-5.4937176E-5,-9.01144E-2,2.2190021E-1,-2.2698842E-1,1.8381548E-1,-4.911543E-1,3.201753E-1,-4.2765286E-2,1.821254E-2,1.06243365E-1,-2.0455187E-2,7.6858373E-3,-7.130753E-2,4.039733E-2,-5.2456874E-2],"categories":[],"categories_nodes":[],"categories_segments":[],"categories_sizes":[],"default_left":[0,0,0,0,0,0,0,0,0,0,0,0,0,0,0],"id":63,"left_children":[1,3,5,7,9,11,13,-1,-1,-1,-1,-1,-1,-1,-1],"loss_changes":[2.2644322E0,3.0631576E0,2.448578E0,4.525975E0,9.567692E0,6.0380566E-1,2.2890153E0,0E0,0E0,0E0,0E0,0E0,0E0,0E0,0E0],"parents":[2147483647,0,0,1,1,2,2,3,3,4,4,5,5,6,6],"right_children":[2,4,6,8,10,12,14,-1,-1,-1,-1,-1,-1,-1,-1],"split_conditions":[2.03E2,3.016E2,1.541252E3,8.01451E4,3.106E2,1.1374859E7,1.542E3,-4.2765286E-2,1.821254E-2,1.06243365E-1,-2.0455187E-2,7.6858373E-3,-7.130753E-2,4.039733E-2,-5.2456874E-2],"split_indices":[2,0,1,5,4,6,1,0,0,0,0,0,0,0,0],"split_type":[0,0,0,0,0,0,0,0,0,0,0,0,0,0,0],"sum_hessian":[1.1128263E2,7.958471E1,3.1697918E1,5.3182487E1,2.6402225E1,3.3552778E0,2.8342642E1,3.5650913E1,1.7531572E1,7.561015E0,1.8841211E1,1.1262581E0,2.2290196E0,2.6259497E1,2.0831442E0],"tree_param":{"num_deleted":"0","num_feature":"8","num_nodes":"15","size_leaf_vector":"1"}},{"base_weights":[-4.952136E-4,5.367631E-1,-3.7556637E-2,-2.1137053E-1,1.0597998E-1,9.131491E-3,-8.5455E-2,-6.5162845E-2,4.0912364E-2,-1.8426136E-3,7.9175405E-2],"categories":[],"categories_nodes":[],"categories_segments":[],"categories_sizes":[],"default_left":[0,0,0,0,0,0,0,0,0,0,0],"id":64,"left_children":[1,3,5,7,-1,9,-1,-1,-1,-1,-1],"loss_changes":[2.2295213E0,3.0514264E0,4.0027323E0,1.3065288E0,0E0,2.1726258E0,0E0,0E0,0E0,0E0,0E0],"parents":[2147483647,0,0,1,1,2,2,3,3,5,5],"right_children":[2,4,6,8,-1,10,-1,-1,-1,-1,-1],"split_conditions":[3.344517E4,1.542E3,1.689E3,2.03E2,1.0597998E-1,1.8905614E7,-8.5455E-2,-6.5162845E-2,4.0912364E-2,-1.8426136E-3,7.9175405E-2],"split_indices":[5,1,1,2,0,6,0,0,0,0,0],"split_type":[0,0,0,0,0,0,0,0,0,0,0],"sum_hessian":[1.09958786E2,6.2256746E0,1.0373311E2,2.8068013E0,3.418873E0,9.906097E1,4.6721425E0,1.6125065E0,1.1942949E0,9.663473E1,2.4262369E0],"tree_param":{"num_deleted":"0","num_feature":"8","num_nodes":"11","size_leaf_vector":"1"}},{"base_weights":[2.0064112E-4,2.4336476E-2,-7.872283E-2,-1.6043406E-2,7.06299E-1,3.9043755E-3,-8.607951E-2,1.0251325E-1,-3.658231E-2],"categories":[],"categories_nodes":[],"categories_segments":[],"categories_sizes":[],"default_left":[0,0,0,0,0,0,0,0,0],"id":65,"left_children":[1,3,-1,5,7,-1,-1,-1,-1],"loss_changes":[2.1114886E0,2.9795532E0,0E0,4.8146296E0,2.442295E0,0E0,0E0,0E0,0E0],"parents":[2147483647,0,0,1,1,3,3,4,4],"right_children":[2,4,-1,6,8,-1,-1,-1,-1],"split_conditions":[3.123E2,3.03E2,-7.872283E-2,3.112E2,1.376E3,3.9043755E-3,-8.607951E-2,1.0251325E-1,-3.658231E-2],"split_indices":[4,0,0,4,1,0,0,0,0],"split_type":[0,0,0,0,0,0,0,0,0],"sum_hessian":[1.0909221E2,1.0678809E2,2.304116E0,1.0174039E2,5.047705E0,9.640734E1,5.333045E0,3.924457E0,1.1232482E0],"tree_param":{"num_deleted":"0","num_feature":"8","num_nodes":"9","size_leaf_vector":"1"}},{"base_weights":[-7.2330504E-4,-7.2729416E-2,2.3686202E-2,4.7304954E-2,-7.659432E-2,1.0375368E-3,6.781075E-2],"categories":[],"categories_nodes":[],"categories_segments":[],"categories_sizes":[],"default_left":[0,0,0,0,0,0,0],"id":66,"left_children":[1,-1,3,5,-1,-1,-1],"loss_changes":[1.9612392E0,0E0,2.0321376E0,2.43553E0,0E0,0E0,0E0],"parents":[2147483647,0,0,2,2,3,3],"right_children":[2,-1,4,6,-1,-1,-1],"split_conditions":[2.993E2,-7.2729416E-2,3.123E2,3.03E2,-7.659432E-2,1.0375368E-3,6.781075E-2],"split_indices":[0,0,4,0,0,0,0],"split_type":[0,0,0,0,0,0,0],"sum_hessian":[1.08613E2,2.594349E0,1.0601865E2,1.03852394E2,2.1662562E0,9.906896E1,4.7834277E0],"tree_param":{"num_deleted":"0","num_feature":"8","num_nodes":"7","size_leaf_vector":"1"}},{"base_weights":[-1.4652938E-3,5.116148E-1,-3.5917927E-2,-2.0492883E-1,1.0260773E-1,7.469409E-3,-8.396186E-2,-6.362173E-2,3.8188796E-2,-1.5115815E-2,1.411043E-2],"categories":[],"categories_nodes":[],"categories_segments":[],"categories_sizes":[],"default_left":[0,0,0,0,0,0,0,0,0,0,0],"id":67,"left_children":[1,3,5,7,-1,9,-1,-1,-1,-1,-1],"loss_changes":[1.9495698E0,2.7685733E0,3.6087096E0,1.1879579E0,0E0,2.1201396E0,0E0,0E0,0E0,0E0,0E0],"parents":[2147483647,0,0,1,1,2,2,3,3,5,5],"right_children":[2,4,6,8,-1,10,-1,-1,-1,-1,-1],"split_conditions":[3.344517E4,1.542E3,1.689E3,2.03E2,1.0260773E-1,1.44E2,-8.396186E-2,-6.362173E-2,3.8188796E-2,-1.5115815E-2,1.411043E-2],"split_indices":[5,1,1,2,0,2,0,0,0,0,0],"split_type":[0,0,0,0,0,0,0,0,0,0,0],"sum_hessian":[1.082492E2,5.939933E0,1.02309265E2,2.7338662E0,3.2060664E0,9.800901E1,4.3002563E0,1.5272273E0,1.2066389E0,4.4753952E1,5.325506E1],"tree_param":{"num_deleted":"0","num_feature":"8","num_nodes":"11","size_leaf_vector":"1"}},{"base_weights":[-1.5000914E-3,-2.5055798E-2,6.972972E-2,-6.578372E-1,7.971287E-3,-9.451408E-2,8.165932E-3,1.6636671E-2,-1.4723654E-2],"categories":[],"categories_nodes":[],"categories_segments":[],"categories_sizes":[],"default_left":[0,0,0,0,0,0,0,0,0],"id":68,"left_children":[1,3,-1,5,7,-1,-1,-1,-1],"loss_changes":[1.8052347E0,2.2211955E0,0E0,1.1971891E0,2.5261898E0,0E0,0E0,0E0,0E0],"parents":[2147483647,0,0,1,1,3,3,4,4],"right_children":[2,4,-1,6,8,-1,-1,-1,-1],"split_conditions":[6.75E1,1.304E3,6.972972E-2,3.025E2,5.6292707E4,-9.451408E-2,8.165932E-3,1.6636671E-2,-1.4723654E-2],"split_indices":[3,1,0,0,5,0,0,0,0],"split_type":[0,0,0,0,0,0,0,0,0],"sum_hessian":[1.0760821E2,1.0503184E2,2.576366E0,4.2716265E0,1.00760216E2,2.8761282E0,1.3954984E0,4.983244E1,5.0927773E1],"tree_param":{"num_deleted":"0","num_feature":"8","num_nodes":"9","size_leaf_vector":"1"}},{"base_weights":[-1.5610231E-3,1.9815924E-2,-7.470963E-2,-5.0114196E-2,3.457493E-1,1.6213901E-3,-1.0656857E-1,5.345974E-2,-7.080002E-2],"categories":[],"categories_nodes":[],"categories_segments":[],"categories_sizes":[],"default_left":[0,0,0,0,0,0,0,0,0],"id":69,"left_children":[1,3,-1,5,7,-1,-1,-1,-1],"loss_changes":[1.7403431E0,2.4385095E0,0E0,5.967611E0,4.137936E0,0E0,0E0,0E0,0E0],"parents":[2147483647,0,0,1,1,3,3,4,4],"right_children":[2,4,-1,6,8,-1,-1,-1,-1],"split_conditions":[3.123E2,3.021E2,-7.470963E-2,3.106E2,1.383E3,1.6213901E-3,-1.0656857E-1,5.345974E-2,-7.080002E-2],"split_indices":[4,0,0,4,1,0,0,0,0],"split_type":[0,0,0,0,0,0,0,0,0],"sum_hessian":[1.0727067E2,1.0522689E2,2.0437803E0,8.733509E1,1.7891798E1,8.290454E1,4.430553E0,1.55904255E1,2.3013728E0],"tree_param":{"num_deleted":"0","num_feature":"8","num_nodes":"9","size_leaf_vector":"1"}},{"base_weights":[-3.4352422E-3,-4.2845946E-2,4.0652543E-1,-7.677654E-2,4.9208787E-1,1.3394682E-1,8.262031E-1,-1.716395E-2,1.671331E-2,1.3531334E-3,6.0492504E-2,7.446699E-2,-4.451643E-2,2.5121717E-2,1.0148891E-1],"categories":[],"categories_nodes":[],"categories_segments":[],"categories_sizes":[],"default_left":[0,0,0,0,0,0,0,0,0,0,0,0,0,0,0],"id":70,"left_children":[1,3,5,7,9,11,13,-1,-1,-1,-1,-1,-1,-1,-1],"loss_changes":[1.7550133E0,1.8350228E0,9.79208E-1,2.2031298E0,3.1802368E-1,2.7964041E0,1.3104677E-1,0E0,0E0,0E0,0E0,0E0,0E0,0E0,0E0],"parents":[2147483647,0,0,1,1,2,2,3,3,4,4,5,5,6,6],"right_children":[2,4,6,8,10,12,14,-1,-1,-1,-1,-1,-1,-1,-1],"split_conditions":[2.2E2,6.38E1,6.93602E4,3.016E2,8.75688E4,1.2801915E7,2.29E2,-1.716395E-2,1.671331E-2,1.3531334E-3,6.0492504E-2,7.446699E-2,-4.451643E-2,2.5121717E-2,1.0148891E-1],"split_indices":[2,3,5,0,5,6,2,0,0,0,0,0,0,0,0],"split_type":[0,0,0,0,0,0,0,0,0,0,0,0,0,0,0],"sum_hessian":[1.065455E2,9.801821E1,8.527286E0,9.297719E1,5.0410237E0,5.969373E0,2.5579128E0,6.715509E1,2.5822102E1,1.1755002E0,3.8655236E0,2.766244E0,3.2031293E0,1.2080389E0,1.3498738E0],"tree_param":{"num_deleted":"0","num_feature":"8","num_nodes":"15","size_leaf_vector":"1"}},{"base_weights":[-1.1196579E-3,2.7102102E-2,-5.7906866E-1,-1.7021017E-2,6.157724E-1,-8.149179E-2,-1.8481301E-1,3.8762686E-3,-9.170606E-2,9.411775E-2,-5.5453587E-2,2.9327711E-2,-5.7579327E-2],"categories":[],"categories_nodes":[],"categories_segments":[],"categories_sizes":[],"default_left":[0,0,0,0,0,0,0,0,0,0,0,0,0],"id":71,"left_children":[1,3,5,7,9,-1,11,-1,-1,-1,-1,-1,-1],"loss_changes":[1.7557552E0,2.6772392E0,3.1539094E-1,4.8798E0,3.2584627E0,0E0,7.6125395E-1,0E0,0E0,0E0,0E0,0E0,0E0],"parents":[2147483647,0,0,1,1,2,2,3,3,4,4,6,6],"right_children":[2,4,6,8,10,-1,12,-1,-1,-1,-1,-1,-1],"split_conditions":[3.12E2,3.026E2,3.035E2,3.11E2,1.378E3,-8.149179E-2,3.126E2,3.8762686E-3,-9.170606E-2,9.411775E-2,-5.5453587E-2,2.9327711E-2,-5.7579327E-2],"split_indices":[4,0,0,4,1,0,4,0,0,0,0,0,0],"split_type":[0,0,0,0,0,0,0,0,0,0,0,0,0],"sum_hessian":[1.0568195E2,1.0167041E2,4.0115495E0,9.548456E1,6.1858506E0,1.8424132E0,2.1691363E0,9.081297E1,4.6715803E0,4.9932585E0,1.1925924E0,1.0882807E0,1.0808555E0],"tree_param":{"num_deleted":"0","num_feature":"8","num_nodes":"13","size_leaf_vector":"1"}},{"base_weights":[-2.5631527E-3,-7.04685E-2,2.001712E-2,8.401866E-2,-2.4766296E-1,-1.3663629E-3,9.1643065E-2,-1.04029946E-1,1.3363052E-3],"categories":[],"categories_nodes":[],"categories_segments":[],"categories_sizes":[],"default_left":[0,0,0,0,0,0,0,0,0],"id":72,"left_children":[1,-1,3,5,7,-1,-1,-1,-1],"loss_changes":[1.6967348E0,0E0,1.7990625E0,6.8846335E0,4.210259E0,0E0,0E0,0E0,0E0],"parents":[2147483647,0,0,2,2,3,3,4,4],"right_children":[2,-1,4,6,8,-1,-1,-1,-1],"split_conditions":[2.993E2,-7.04685E-2,3.106E2,3.008E2,3.021E2,-1.3663629E-3,9.1643065E-2,-1.04029946E-1,1.3363052E-3],"split_indices":[0,0,4,0,0,0,0,0,0],"split_type":[0,0,0,0,0,0,0,0,0],"sum_hessian":[1.05132095E2,2.3344858E0,1.0279761E2,8.351543E1,1.9282179E1,7.562458E1,7.890846E0,4.037229E0,1.5244949E1],"tree_param":{"num_deleted":"0","num_feature":"8","num_nodes":"9","size_leaf_vector":"1"}},{"base_weights":[-3.2632588E-3,4.85638E-1,-3.5846196E-2,-2.045091E-1,9.943834E-2,4.914114E-3,-8.235436E-2,-6.2079143E-2,3.483012E-2,-8.470826E-3,2.1882005E-2],"categories":[],"categories_nodes":[],"categories_segments":[],"categories_sizes":[],"default_left":[0,0,0,0,0,0,0,0,0,0,0],"id":73,"left_children":[1,3,5,7,-1,9,-1,-1,-1,-1,-1],"loss_changes":[1.6995893E0,2.544104E0,3.2125642E0,1.0581148E0,0E0,1.859121E0,0E0,0E0,0E0,0E0,0E0],"parents":[2147483647,0,0,1,1,2,2,3,3,5,5],"right_children":[2,4,6,8,-1,10,-1,-1,-1,-1,-1],"split_conditions":[3.344517E4,1.542E3,1.689E3,2.03E2,9.943834E-2,2.05E2,-8.235436E-2,-6.2079143E-2,3.483012E-2,-8.470826E-3,2.1882005E-2],"split_indices":[5,1,1,2,0,2,0,0,0,0,0],"split_type":[0,0,0,0,0,0,0,0,0,0,0],"sum_hessian":[1.0459939E2,5.666711E0,9.893267E1,2.6584113E0,3.0082996E0,9.501003E1,3.9226418E0,1.4463179E0,1.2120934E0,6.738221E1,2.7627825E1],"tree_param":{"num_deleted":"0","num_feature":"8","num_nodes":"11","size_leaf_vector":"1"}},{"base_weights":[-3.010104E-3,-2.4787372E-2,6.7842275E-2,4.663753E-1,-5.690101E-2,-1.9605327E-2,9.651112E-2,-2.074786E-3,-7.979441E-2],"categories":[],"categories_nodes":[],"categories_segments":[],"categories_sizes":[],"default_left":[0,0,0,0,0,0,0,0,0],"id":74,"left_children":[1,3,-1,5,7,-1,-1,-1,-1],"loss_changes":[1.5759693E0,1.6476418E0,0E0,2.3089776E0,2.5918431E0,0E0,0E0,0E0,0E0],"parents":[2147483647,0,0,1,1,3,3,4,4],"right_children":[2,4,-1,6,8,-1,-1,-1,-1],"split_conditions":[1.8905614E7,3.344517E4,6.7842275E-2,1.542E3,1.689E3,-1.9605327E-2,9.651112E-2,-2.074786E-3,-7.979441E-2],"split_indices":[6,5,0,1,1,0,0,0,0],"split_type":[0,0,0,0,0,0,0,0,0],"sum_hessian":[1.04066025E2,1.01777054E2,2.288972E0,5.4162016E0,9.636085E1,2.5870037E0,2.8291981E0,9.2858574E1,3.5022786E0],"tree_param":{"num_deleted":"0","num_feature":"8","num_nodes":"9","size_leaf_vector":"1"}},{"base_weights":[-2.1119472E-3,2.4441984E-2,-5.535998E-1,-2.801214E-2,4.7313818E-1,-7.860061E-2,-1.7092519E-1,1.1949524E-3,-9.5488E-2,7.2925024E-2,-6.1851848E-2,2.8522426E-2,-5.5683024E-2],"categories":[],"categories_nodes":[],"categories_segments":[],"categories_sizes":[],"default_left":[0,0,0,0,0,0,0,0,0,0,0,0,0],"id":75,"left_children":[1,3,5,7,9,-1,11,-1,-1,-1,-1,-1,-1],"loss_changes":[1.5426922E0,2.3805485E0,2.9602683E-1,3.3819182E0,3.410073E0,0E0,7.056334E-1,0E0,0E0,0E0,0E0,0E0,0E0],"parents":[2147483647,0,0,1,1,2,2,3,3,4,4,6,6],"right_children":[2,4,6,8,10,-1,12,-1,-1,-1,-1,-1,-1],"split_conditions":[3.12E2,3.024E2,3.035E2,3.11E2,1.383E3,-7.860061E-2,3.126E2,1.1949524E-3,-9.5488E-2,7.2925024E-2,-6.1851848E-2,2.8522426E-2,-5.5683024E-2],"split_indices":[4,0,0,4,1,0,4,0,0,0,0,0,0],"split_type":[0,0,0,0,0,0,0,0,0,0,0,0,0],"sum_hessian":[1.03421165E2,9.958201E1,3.839156E0,8.999845E1,9.583557E0,1.7328062E0,2.10635E0,8.722488E1,2.7735703E0,8.031319E0,1.552238E0,1.0848844E0,1.0214654E0],"tree_param":{"num_deleted":"0","num_feature":"8","num_nodes":"13","size_leaf_vector":"1"}},{"base_weights":[-3.7942852E-3,-1.3669032E-1,1.066949E-1,-3.278229E-1,1.9014658E-1,7.363806E-2,5.4882787E-2,1.1860461E-2,-5.8092713E-2,1.0777576E-1,-2.3025323E-2,1.2378702E-4,6.749058E-2],"categories":[],"categories_nodes":[],"categories_segments":[],"categories_sizes":[],"default_left":[0,0,0,0,0,0,0,0,0,0,0,0,0],"id":76,"left_children":[1,3,5,7,9,-1,11,-1,-1,-1,-1,-1,-1],"loss_changes":[1.5396934E0,3.0352304E0,1.8282084E0,3.5034366E0,7.037166E0,0E0,1.7953051E0,0E0,0E0,0E0,0E0,0E0,0E0],"parents":[2147483647,0,0,1,1,2,2,3,3,4,4,6,6],"right_children":[2,4,6,8,10,-1,12,-1,-1,-1,-1,-1,-1],"split_conditions":[1.44E2,3.008E2,1.49E2,4.349895E-3,3.106E2,7.363806E-2,6.08E1,1.1860461E-2,-5.8092713E-2,1.0777576E-1,-2.3025323E-2,1.2378702E-4,6.749058E-2],"split_indices":[2,0,2,7,4,0,3,0,0,0,0,0,0],"split_type":[0,0,0,0,0,0,0,0,0,0,0,0,0],"sum_hessian":[1.0286499E2,4.6589798E1,5.6275192E1,2.9396091E1,1.7193705E1,3.2739184E0,5.300127E1,1.0828351E1,1.8567741E1,5.023561E0,1.2170144E1,4.970293E1,3.2983434E0],"tree_param":{"num_deleted":"0","num_feature":"8","num_nodes":"13","size_leaf_vector":"1"}},{"base_weights":[-1.8994054E-3,4.6680388E-1,-3.1867485E-2,-1.7283837E-1,9.4441876E-2,3.1188806E-3,-7.9088025E-2,-5.9045363E-2,3.386209E-2,-2.0126745E-3,7.242546E-2],"categories":[],"categories_nodes":[],"categories_segments":[],"categories_sizes":[],"default_left":[0,0,0,0,0,0,0,0,0,0,0],"id":77,"left_children":[1,3,5,7,-1,9,-1,-1,-1,-1,-1],"loss_changes":[1.4602149E0,2.07193E0,2.595616E0,9.509626E-1,0E0,1.5961034E0,0E0,0E0,0E0,0E0,0E0],"parents":[2147483647,0,0,1,1,2,2,3,3,5,5],"right_children":[2,4,6,8,-1,10,-1,-1,-1,-1,-1],"split_conditions":[3.344517E4,1.542E3,1.689E3,2.03E2,9.4441876E-2,1.8905614E7,-7.9088025E-2,-5.9045363E-2,3.386209E-2,-2.0126745E-3,7.242546E-2],"split_indices":[5,1,1,2,0,6,0,0,0,0,0],"split_type":[0,0,0,0,0,0,0,0,0,0,0],"sum_hessian":[1.0189939E2,5.2477307E0,9.665166E1,2.5161357E0,2.731595E0,9.334486E1,3.3068E0,1.3001181E0,1.2160177E0,9.1371605E1,1.9732498E0],"tree_param":{"num_deleted":"0","num_feature":"8","num_nodes":"11","size_leaf_vector":"1"}},{"base_weights":[-1.126219E-3,-3.822861E-2,3.704078E-1,-6.1614633E-2,6.308715E-2,5.060308E-2,6.8584335E-1,-6.4252906E-2,-2.8430843E-3,6.787428E-2,-7.856045E-2,2.1839364E-2,9.9144995E-2],"categories":[],"categories_nodes":[],"categories_segments":[],"categories_sizes":[],"default_left":[0,0,0,0,0,0,0,0,0,0,0,0,0],"id":78,"left_children":[1,3,5,7,-1,9,11,-1,-1,-1,-1,-1,-1],"loss_changes":[1.4235802E0,1.5076727E0,9.1121554E-1,1.7476661E0,0E0,3.546016E0,4.4647288E-1,0E0,0E0,0E0,0E0,0E0,0E0],"parents":[2147483647,0,0,1,1,2,2,3,3,5,5,6,6],"right_children":[2,4,6,8,-1,10,12,-1,-1,-1,-1,-1,-1],"split_conditions":[2.2E2,6.75E1,4.02E1,1.304E3,6.308715E-2,1.2801915E7,2.25E2,-6.4252906E-2,-2.8430843E-3,6.787428E-2,-7.856045E-2,2.1839364E-2,9.9144995E-2],"split_indices":[2,3,3,1,0,6,2,0,0,0,0,0,0],"split_type":[0,0,0,0,0,0,0,0,0,0,0,0,0],"sum_hessian":[1.0124451E2,9.286761E1,8.3769045E0,9.060862E1,2.2589886E0,4.7358646E0,3.6410394E0,3.9039233E0,8.67047E1,2.811922E0,1.9239426E0,2.1172144E0,1.523825E0],"tree_param":{"num_deleted":"0","num_feature":"8","num_nodes":"13","size_leaf_vector":"1"}},{"base_weights":[-4.348472E-6,-6.7296535E-2,2.039228E-2,5.717152E-2,-3.7255263E-1,-1.1671312E-3,5.3570677E-2,-7.99784E-2,8.42763E-3],"categories":[],"categories_nodes":[],"categories_segments":[],"categories_sizes":[],"default_left":[0,0,0,0,0,0,0,0,0],"id":79,"left_children":[1,-1,3,5,7,-1,-1,-1,-1],"loss_changes":[1.4118673E0,0E0,1.4641238E0,3.0422301E0,1.7610341E0,0E0,0E0,0E0,0E0],"parents":[2147483647,0,0,2,2,3,3,4,4],"right_children":[2,-1,4,6,8,-1,-1,-1,-1],"split_conditions":[2.993E2,-6.7296535E-2,3.115E2,3.021E2,3.032E2,-1.1671312E-3,5.3570677E-2,-7.99784E-2,8.42763E-3],"split_indices":[0,0,4,0,0,0,0,0,0],"split_type":[0,0,0,0,0,0,0,0,0],"sum_hessian":[1.00859985E2,2.0258448E0,9.8834145E1,9.1156494E1,7.677649E0,8.05448E1,1.0611691E1,3.579413E0,4.098236E0],"tree_param":{"num_deleted":"0","num_feature":"8","num_nodes":"9","size_leaf_vector":"1"}},{"base_weights":[-9.271095E-4,1.8283306E-2,-6.969973E-2,-1.30046625E-2,6.103559E-1,3.2771162E-3,-7.731366E-2,9.122696E-2,-2.6532158E-2],"categories":[],"categories_nodes":[],"categories_segments":[],"categories_sizes":[],"default_left":[0,0,0,0,0,0,0,0,0],"id":80,"left_children":[1,3,-1,5,7,-1,-1,-1,-1],"loss_changes":[1.3684319E0,1.853664E0,0E0,3.3522859E0,1.5697083E0,0E0,0E0,0E0,0E0],"parents":[2147483647,0,0,1,1,3,3,4,4],"right_children":[2,4,-1,6,8,-1,-1,-1,-1],"split_conditions":[3.123E2,3.03E2,-6.969973E-2,3.112E2,1.374E3,3.2771162E-3,-7.731366E-2,9.122696E-2,-2.6532158E-2],"split_indices":[4,0,0,4,1,0,0,0,0],"split_type":[0,0,0,0,0,0,0,0,0],"sum_hessian":[1.0038417E2,9.863571E1,1.7484534E0,9.46139E1,4.0218186E0,9.0142334E1,4.4715643E0,2.9596214E0,1.0621973E0],"tree_param":{"num_deleted":"0","num_feature":"8","num_nodes":"9","size_leaf_vector":"1"}},{"base_weights":[-1.6467841E-3,-6.585144E-2,1.759607E-2,3.6331624E-2,-6.782647E-2,7.584212E-4,5.864951E-2],"categories":[],"categories_nodes":[],"categories_segments":[],"categories_sizes":[],"default_left":[0,0,0,0,0,0,0],"id":81,"left_children":[1,-1,3,5,-1,-1,-1],"loss_changes":[1.2885889E0,0E0,1.3169963E0,1.5372319E0,0E0,0E0,0E0],"parents":[2147483647,0,0,2,2,3,3],"right_children":[2,-1,4,6,-1,-1,-1],"split_conditions":[2.993E2,-6.585144E-2,3.123E2,3.03E2,-6.782647E-2,7.584212E-4,5.864951E-2],"split_indices":[0,0,4,0,0,0,0],"split_type":[0,0,0,0,0,0,0],"sum_hessian":[1.0002856E2,1.9014105E0,9.8127144E1,9.647735E1,1.6497948E0,9.264995E1,3.8274047E0],"tree_param":{"num_deleted":"0","num_feature":"8","num_nodes":"7","size_leaf_vector":"1"}},{"base_weights":[-2.2717293E-3,4.4578E-1,-3.0416181E-2,-1.7112307E-1,9.172248E-2,2.4976719E-3,-7.748678E-2,-5.75166E-2,3.123127E-2,-1.9035606E-3,6.9777116E-2],"categories":[],"categories_nodes":[],"categories_segments":[],"categories_sizes":[],"default_left":[0,0,0,0,0,0,0,0,0,0,0],"id":82,"left_children":[1,3,5,7,-1,9,-1,-1,-1,-1,-1],"loss_changes":[1.2842813E0,1.9076803E0,2.348076E0,8.53578E-1,0E0,1.401033E0,0E0,0E0,0E0,0E0,0E0],"parents":[2147483647,0,0,1,1,2,2,3,3,5,5],"right_children":[2,4,6,8,-1,10,-1,-1,-1,-1,-1],"split_conditions":[3.344517E4,1.542E3,1.689E3,2.03E2,9.172248E-2,1.8905614E7,-7.748678E-2,-5.75166E-2,3.123127E-2,-1.9035606E-3,6.9777116E-2],"split_indices":[5,1,1,2,0,6,0,0,0,0,0],"split_type":[0,0,0,0,0,0,0,0,0,0,0],"sum_hessian":[9.976964E1,5.0196247E0,9.4750015E1,2.4503171E0,2.5693076E0,9.169272E1,3.057293E0,1.2313993E0,1.2189178E0,8.988162E1,1.8110977E0],"tree_param":{"num_deleted":"0","num_feature":"8","num_nodes":"11","size_leaf_vector":"1"}},{"base_weights":[-1.498002E-3,-3.669678E-2,3.487136E-1,-1.00217745E-1,1.9384827E-1,4.7766405E-1,-2.6879588E-2,9.384509E-4,-8.691818E-2,5.9446074E-2,-6.2874826E-3,8.512791E-2,1.5700737E-2],"categories":[],"categories_nodes":[],"categories_segments":[],"categories_sizes":[],"default_left":[0,0,0,0,0,0,0,0,0,0,0,0,0],"id":83,"left_children":[1,3,5,7,9,11,-1,-1,-1,-1,-1,-1,-1],"loss_changes":[1.2475659E0,1.3656082E0,8.644234E-1,6.1376066E0,2.1145983E0,8.25557E-1,0E0,0E0,0E0,0E0,0E0,0E0,0E0],"parents":[2147483647,0,0,1,1,2,2,3,3,4,4,5,5],"right_children":[2,4,6,8,10,12,-1,-1,-1,-1,-1,-1,-1],"split_conditions":[2.2E2,8.076161E4,2.36E2,4.68E1,1.481E3,1.2801915E7,-2.6879588E-2,9.384509E-4,-8.691818E-2,5.9446074E-2,-6.2874826E-3,8.512791E-2,1.5700737E-2],"split_indices":[2,5,2,3,1,6,0,0,0,0,0,0,0],"split_type":[0,0,0,0,0,0,0,0,0,0,0,0,0],"sum_hessian":[9.9167694E1,9.092436E1,8.243335E0,7.172705E1,1.9197308E1,7.006649E0,1.2366859E0,6.3643578E1,8.083473E0,6.983731E0,1.2213576E1,2.471808E0,4.534841E0],"tree_param":{"num_deleted":"0","num_feature":"8","num_nodes":"13","size_leaf_vector":"1"}},{"base_weights":[-1.1586377E-3,-1.2675354E-1,9.946332E-2,-3.1516787E-1,1.8889584E-1,7.325625E-2,5.4537114E-2,9.60548E-3,-5.6226607E-2,9.950933E-2,-2.0835437E-2,4.4338103E-2,-1.8868834E-3],"categories":[],"categories_nodes":[],"categories_segments":[],"categories_sizes":[],"default_left":[0,0,0,0,0,0,0,0,0,0,0,0,0],"id":84,"left_children":[1,3,5,7,9,-1,11,-1,-1,-1,-1,-1,-1],"loss_changes":[1.272997E0,2.7239985E0,1.5509055E0,2.942825E0,5.7707925E0,0E0,1.5299118E0,0E0,0E0,0E0,0E0,0E0,0E0],"parents":[2147483647,0,0,1,1,2,2,3,3,4,4,6,6],"right_children":[2,4,6,8,10,-1,12,-1,-1,-1,-1,-1,-1],"split_conditions":[1.44E2,3.008E2,1.48E2,4.349895E-3,3.106E2,7.325625E-2,4.793294E4,9.60548E-3,-5.6226607E-2,9.950933E-2,-2.0835437E-2,4.4338103E-2,-1.8868834E-3],"split_indices":[2,0,2,7,4,0,5,0,0,0,0,0,0],"split_type":[0,0,0,0,0,0,0,0,0,0,0,0,0],"sum_hessian":[9.873328E1,4.380135E1,5.4931923E1,2.7429768E1,1.6371584E1,2.6256342E0,5.230629E1,1.0525095E1,1.6904673E1,4.9073772E0,1.1464207E1,7.505935E0,4.4800354E1],"tree_param":{"num_deleted":"0","num_feature":"8","num_nodes":"13","size_leaf_vector":"1"}},{"base_weights":[1.9619144E-4,4.9661687E-1,-2.4631746E-2,2.0180753E-2,6.299278E-2,-5.5443286E-4,-7.072305E-2,-1.5270463E-2,9.527697E-3],"categories":[],"categories_nodes":[],"categories_segments":[],"categories_sizes":[],"default_left":[0,0,0,0,0,0,0,0,0],"id":85,"left_children":[1,3,5,-1,-1,7,-1,-1,-1],"loss_changes":[1.233687E0,6.0252428E-2,1.5664573E0,0E0,0E0,1.3718421E0,0E0,0E0,0E0],"parents":[2147483647,0,0,1,1,2,2,5,5],"right_children":[2,4,6,-1,-1,8,-1,-1,-1],"split_conditions":[1.7E1,8.9E1,1.689E3,2.0180753E-2,6.299278E-2,7.2663135E6,-7.072305E-2,-1.5270463E-2,9.527697E-3],"split_indices":[3,2,1,0,0,6,0,0,0],"split_type":[0,0,0,0,0,0,0,0,0],"sum_hessian":[9.8103E1,3.7676957E0,9.4335304E1,1.9559771E0,1.8117187E0,9.20879E1,2.247405E0,3.535762E1,5.6730274E1],"tree_param":{"num_deleted":"0","num_feature":"8","num_nodes":"9","size_leaf_vector":"1"}},{"base_weights":[1.7135142E-4,1.7154446E-2,-6.539374E-2,-1.5764564E-2,5.04051E-1,2.7814594E-3,-8.071267E-2,8.025762E-2,-5.131307E-2],"categories":[],"categories_nodes":[],"categories_segments":[],"categories_sizes":[],"default_left":[0,0,0,0,0,0,0,0,0],"id":86,"left_children":[1,3,-1,5,7,-1,-1,-1,-1],"loss_changes":[1.1095698E0,1.5682007E0,0E0,3.200405E0,2.2929626E0,0E0,0E0,0E0,0E0],"parents":[2147483647,0,0,1,1,3,3,4,4],"right_children":[2,4,-1,6,8,-1,-1,-1,-1],"split_conditions":[3.123E2,3.027E2,-6.539374E-2,3.111E2,1.378E3,2.7814594E-3,-8.071267E-2,8.025762E-2,-5.131307E-2],"split_indices":[4,0,0,4,1,0,0,0,0],"split_type":[0,0,0,0,0,0,0,0,0],"sum_hessian":[9.787232E1,9.634463E1,1.5276906E0,9.1149635E1,5.194992E0,8.730664E1,3.8429973E0,4.1793933E0,1.0155987E0],"tree_param":{"num_deleted":"0","num_feature":"8","num_nodes":"9","size_leaf_vector":"1"}},{"base_weights":[-1.0501959E-3,-6.318424E-2,1.6539745E-2,3.3109736E-2,-6.36406E-2,6.906013E-4,5.5044036E-2],"categories":[],"categories_nodes":[],"categories_segments":[],"categories_sizes":[],"default_left":[0,0,0,0,0,0,0],"id":87,"left_children":[1,-1,3,5,-1,-1,-1],"loss_changes":[1.1030948E0,0E0,1.0681466E0,1.2885426E0,0E0,0E0,0E0],"parents":[2147483647,0,0,2,2,3,3],"right_children":[2,-1,4,6,-1,-1,-1],"split_conditions":[2.993E2,-6.318424E-2,3.123E2,3.03E2,-6.36406E-2,6.906013E-4,5.5044036E-2],"split_indices":[0,0,4,0,0,0,0],"split_type":[0,0,0,0,0,0,0],"sum_hessian":[9.747549E1,1.6970482E0,9.5778435E1,9.433379E1,1.444644E0,9.075047E1,3.5833247E0],"tree_param":{"num_deleted":"0","num_feature":"8","num_nodes":"7","size_leaf_vector":"1"}},{"base_weights":[-1.7108936E-3,-2.0333262E-2,5.850652E-2,-6.230391E-1,9.752403E-3,-8.575804E-2,4.619189E-3,3.4600448E-2,-4.081381E-3],"categories":[],"categories_nodes":[],"categories_segments":[],"categories_sizes":[],"default_left":[0,0,0,0,0,0,0,0,0],"id":88,"left_children":[1,3,-1,5,7,-1,-1,-1,-1],"loss_changes":[1.085533E0,1.7504164E0,0E0,7.599263E-1,1.5887512E0,0E0,0E0,0E0,0E0],"parents":[2147483647,0,0,1,1,3,3,4,4],"right_children":[2,4,-1,6,8,-1,-1,-1,-1],"split_conditions":[6.75E1,1.304E3,5.850652E-2,3.025E2,1.352E3,-8.575804E-2,4.619189E-3,3.4600448E-2,-4.081381E-3],"split_indices":[3,1,0,0,1,0,0,0,0],"split_type":[0,0,0,0,0,0,0,0,0],"sum_hessian":[9.725396E1,9.519804E1,2.0559292E0,3.5890849E0,9.160895E1,2.449265E0,1.13982E0,1.121167E1,8.039728E1],"tree_param":{"num_deleted":"0","num_feature":"8","num_nodes":"9","size_leaf_vector":"1"}},{"base_weights":[-1.5005925E-3,4.6799412E-1,-2.5098529E-2,1.8934365E-2,5.9480924E-2,-2.5853426E-3,-6.895709E-2,-3.5109886E-3,4.17769E-2],"categories":[],"categories_nodes":[],"categories_segments":[],"categories_sizes":[],"default_left":[0,0,0,0,0,0,0,0,0],"id":89,"left_children":[1,3,5,-1,-1,7,-1,-1,-1],"loss_changes":[1.0967546E0,5.4792166E-2,1.40732E0,0E0,0E0,1.2740088E0,0E0,0E0,0E0],"parents":[2147483647,0,0,1,1,2,2,5,5],"right_children":[2,4,6,-1,-1,8,-1,-1,-1],"split_conditions":[1.7E1,8.9E1,1.689E3,1.8934365E-2,5.9480924E-2,1.7487046E7,-6.895709E-2,-3.5109886E-3,4.17769E-2],"split_indices":[3,2,1,0,0,6,0,0,0],"split_type":[0,0,0,0,0,0,0,0,0],"sum_hessian":[9.693286E1,3.7376735E0,9.319518E1,1.9487529E0,1.7889205E0,9.111208E1,2.0831046E0,8.541931E1,5.692768E0],"tree_param":{"num_deleted":"0","num_feature":"8","num_nodes":"9","size_leaf_vector":"1"}},{"base_weights":[-8.757476E-4,-2.7247457E-2,3.8688257E-1,4.4041204E-1,-5.183549E-2,2.7480567E-2,9.4860576E-2,1.772475E-2,5.6101102E-2,-3.565557E-2,1.5508658E-3,7.070695E-2,-7.585763E-2],"categories":[],"categories_nodes":[],"categories_segments":[],"categories_sizes":[],"default_left":[0,0,0,0,0,0,0,0,0,0,0,0,0],"id":90,"left_children":[1,3,5,7,9,11,-1,-1,-1,-1,-1,-1,-1],"loss_changes":[1.0072396E0,1.0829738E0,1.2402649E0,5.0062418E-2,1.8213489E0,3.129878E0,0E0,0E0,0E0,0E0,0E0,0E0,0E0],"parents":[2147483647,0,0,1,1,2,2,3,3,4,4,5,5],"right_children":[2,4,6,8,10,12,-1,-1,-1,-1,-1,-1,-1],"split_conditions":[2.25E2,1.7E1,3.9952244E1,8.9E1,3.5E1,1.2614223E7,9.4860576E-2,1.772475E-2,5.6101102E-2,-3.565557E-2,1.5508658E-3,7.070695E-2,-7.585763E-2],"split_indices":[2,3,3,2,3,6,0,0,0,0,0,0,0],"split_type":[0,0,0,0,0,0,0,0,0,0,0,0,0],"sum_hessian":[9.6468475E1,9.119591E1,5.2725654E0,3.7105398E0,8.748537E1,3.8549871E0,1.417578E0,1.9421697E0,1.7683702E0,1.5057652E1,7.242772E1,2.121404E0,1.7335835E0],"tree_param":{"num_deleted":"0","num_feature":"8","num_nodes":"13","size_leaf_vector":"1"}},{"base_weights":[4.4999635E-4,-6.941478E-2,1.4742531E-1,-3.583591E-2,-9.321744E-2,-5.217241E-1,2.3352444E-1,-7.839146E-3,7.4218996E-2,-6.7797385E-2,-3.4771604E-3,2.9543718E-2,-5.0558265E-2],"categories":[],"categories_nodes":[],"categories_segments":[],"categories_sizes":[],"default_left":[0,0,0,0,0,0,0,0,0,0,0,0,0],"id":91,"left_children":[1,3,5,7,-1,9,11,-1,-1,-1,-1,-1,-1],"loss_changes":[1.0055209E0,1.8895884E0,1.9395075E0,2.2080023E0,0E0,2.7360988E-1,1.4601079E0,0E0,0E0,0E0,0E0,0E0,0E0],"parents":[2147483647,0,0,1,1,2,2,3,3,5,5,6,6],"right_children":[2,4,6,8,-1,10,12,-1,-1,-1,-1,-1,-1],"split_conditions":[2.03E2,2.01E2,1.541252E3,1.7487046E7,-9.321744E-2,3.019E2,1.542E3,-7.839146E-3,7.4218996E-2,-6.7797385E-2,-3.4771604E-3,2.9543718E-2,-5.0558265E-2],"split_indices":[2,2,1,6,0,0,1,0,0,0,0,0,0],"split_type":[0,0,0,0,0,0,0,0,0,0,0,0,0],"sum_hessian":[9.592725E1,6.537766E1,3.054959E1,6.3930984E1,1.4466774E0,2.9058886E0,2.76437E1,6.1468117E1,2.4628687E0,1.9029915E0,1.002897E0,2.6060934E1,1.5827668E0],"tree_param":{"num_deleted":"0","num_feature":"8","num_nodes":"13","size_leaf_vector":"1"}},{"base_weights":[-8.9375273E-4,1.04532145E-1,-9.770869E-2,4.73286E-3,4.7771227E-1,-3.9341542E-1,1.2695098E-1,-8.631873E-3,4.9307387E-2,1.677443E-2,1.0723759E-1,-6.7499265E-2,-5.0291116E-3,1.602194E-1,-5.8746184E-3],"categories":[],"categories_nodes":[],"categories_segments":[],"categories_sizes":[],"default_left":[0,0,0,0,0,0,0,0,0,0,0,0,0,0,0],"id":92,"left_children":[1,3,5,7,9,11,13,-1,-1,-1,-1,-1,-1,-1,-1],"loss_changes":[9.9718213E-1,1.7397157E0,3.4329982E0,1.7283753E0,1.6374252E0,2.1137857E0,8.228868E0,0E0,0E0,0E0,0E0,0E0,0E0,0E0,0E0],"parents":[2147483647,0,0,1,1,2,2,3,3,4,4,5,5,6,6],"right_children":[2,4,6,8,10,12,14,-1,-1,-1,-1,-1,-1,-1,-1],"split_conditions":[5.6292707E4,5.453481E4,6.981872E4,1.624E3,1.541252E3,1.98E2,4.68E1,-8.631873E-3,4.9307387E-2,1.677443E-2,1.0723759E-1,-6.7499265E-2,-5.0291116E-3,1.602194E-1,-5.8746184E-3],"split_indices":[5,5,5,1,1,2,3,0,0,0,0,0,0,0,0],"split_type":[0,0,0,0,0,0,0,0,0,0,0,0,0,0,0],"sum_hessian":[9.569713E1,4.577312E1,4.9924007E1,3.6913937E1,8.859184E0,2.122957E1,2.8694437E1,3.1806778E1,5.107159E0,6.6664066E0,2.1927774E0,1.1129336E1,1.0100235E1,2.3552794E0,2.6339157E1],"tree_param":{"num_deleted":"0","num_feature":"8","num_nodes":"15","size_leaf_vector":"1"}},{"base_weights":[1.1608028E-3,-6.0797777E-2,1.7434187E-2,5.5737115E-2,-2.5882924E-1,-6.617062E-4,7.02858E-2,-9.22743E-2,5.406514E-3],"categories":[],"categories_nodes":[],"categories_segments":[],"categories_sizes":[],"default_left":[0,0,0,0,0,0,0,0,0],"id":93,"left_children":[1,-1,3,5,7,-1,-1,-1,-1],"loss_changes":[9.6571624E-1,0E0,1.0177555E0,3.3979356E0,2.485072E0,0E0,0E0,0E0,0E0],"parents":[2147483647,0,0,2,2,3,3,4,4],"right_children":[2,-1,4,6,8,-1,-1,-1,-1],"split_conditions":[2.993E2,-6.0797777E-2,3.11E2,3.021E2,3.025E2,-6.617062E-4,7.02858E-2,-9.22743E-2,5.406514E-3],"split_indices":[0,0,4,0,0,0,0,0,0],"split_type":[0,0,0,0,0,0,0,0,0],"sum_hessian":[9.535239E1,1.5349909E0,9.38174E1,8.309484E1,1.0722553E1,7.66946E1,6.4002347E0,2.8103552E0,7.912198E0],"tree_param":{"num_deleted":"0","num_feature":"8","num_nodes":"9","size_leaf_vector":"1"}},{"base_weights":[1.8958122E-4,-1.7477112E-2,5.6051504E-2,-5.822744E-1,1.0174209E-2,-8.189445E-2,5.0533363E-3,1.393526E-2,-1.101219E-2],"categories":[],"categories_nodes":[],"categories_segments":[],"categories_sizes":[],"default_left":[0,0,0,0,0,0,0,0,0],"id":94,"left_children":[1,3,-1,5,7,-1,-1,-1,-1],"loss_changes":[9.5928067E-1,1.4732449E0,0E0,7.007016E-1,1.4224925E0,0E0,0E0,0E0,0E0],"parents":[2147483647,0,0,1,1,3,3,4,4],"right_children":[2,4,-1,6,8,-1,-1,-1,-1],"split_conditions":[6.75E1,1.304E3,5.6051504E-2,3.025E2,5.6292707E4,-8.189445E-2,5.0533363E-3,1.393526E-2,-1.101219E-2],"split_indices":[3,1,0,0,5,0,0,0,0],"split_type":[0,0,0,0,0,0,0,0,0],"sum_hessian":[9.491626E1,9.2954285E1,1.9619784E0,3.4022968E0,8.955199E1,2.2621193E0,1.1401774E0,4.3105404E1,4.6446583E1],"tree_param":{"num_deleted":"0","num_feature":"8","num_nodes":"9","size_leaf_vector":"1"}},{"base_weights":[-6.836034E-5,2.0930814E-2,-4.7936308E-1,-3.411765E-2,3.3666864E-1,-6.875431E-2,-1.1815634E-2,1.8706368E-3,-9.855776E-2,5.454833E-2,-6.59678E-2],"categories":[],"categories_nodes":[],"categories_segments":[],"categories_sizes":[],"default_left":[0,0,0,0,0,0,0,0,0,0,0],"id":95,"left_children":[1,3,5,7,9,-1,-1,-1,-1,-1,-1],"loss_changes":[9.7330785E-1,1.6217958E0,2.2398496E-1,4.0292473E0,3.2407281E0,0E0,0E0,0E0,0E0,0E0,0E0],"parents":[2147483647,0,0,1,1,2,2,3,3,4,4],"right_children":[2,4,6,8,10,-1,-1,-1,-1,-1,-1],"split_conditions":[3.12E2,3.021E2,3.035E2,3.106E2,1.383E3,-6.875431E-2,-1.1815634E-2,1.8706368E-3,-9.855776E-2,5.454833E-2,-6.59678E-2],"split_indices":[4,0,0,4,1,0,0,0,0,0,0],"split_type":[0,0,0,0,0,0,0,0,0,0,0],"sum_hessian":[9.470733E1,9.16483E1,3.0590253E0,7.880134E1,1.2846963E1,1.3674438E0,1.6915814E0,7.5585266E1,3.2160718E0,1.0995119E1,1.8518437E0],"tree_param":{"num_deleted":"0","num_feature":"8","num_nodes":"11","size_leaf_vector":"1"}},{"base_weights":[-2.1580022E-3,1.3270733E-2,-6.168571E-2,-1.1145562E-2,5.2244025E-1,2.7819495E-3,-6.9594294E-2,-2.1192754E-2,8.1932046E-2],"categories":[],"categories_nodes":[],"categories_segments":[],"categories_sizes":[],"default_left":[0,0,0,0,0,0,0,0,0],"id":96,"left_children":[1,3,-1,5,7,-1,-1,-1,